<?xml version="1.0"?>
<opencv_storage>
<opencv_ml_svm>
  <format>3</format>
  <svmType>C_SVC</svmType>
  <kernel>
    <type>LINEAR</type></kernel>
  <C>1.0000000000000001e-01</C>
  <term_criteria><iterations>1000</iterations></term_criteria>
  <var_count>400</var_count>
  <class_count>10</class_count>
  <class_labels type_id="opencv-matrix">
    <rows>10</rows>
    <cols>1</cols>
    <dt>i</dt>
    <data>
      0 1 2 3 4 5 6 7 8 9</data></class_labels>
  <sv_total>45</sv_total>
  <support_vectors>
    <_>
      0. 0. 0. 0. 0. 0. 0. 0. 0. 0. 0. 0. 0. 0. 0. 0. 0. 0. 0. 0. 0. 0.
      0. 0. 0. 0. 0. 0. 0. 0. 0. 0. 0. 0. 0. 0. 0. 0. 0. 0. 0. 0. 0. 0.
      0. 0. 0. 0. 0. 1.34178490e-05 -1.64340338e-04 -1.78044225e-04
      8.01671922e-05 1.16405805e-04 0. 0. 0. 0. 0. 0. 0. 0. 0. 0. 0.
      -6.53581583e-06 0. 1.25488968e-05 3.38247773e-05 -1.38144969e-04
      4.31710127e-04 2.92120094e-04 -1.80071991e-04 5.26903277e-05
      7.69202234e-05 2.10471335e-05 2.11705901e-05 0. 0. 0. 0. 0. 0. 0.
      0. 1.09359462e-06 6.01308057e-06 1.21358928e-04 1.38090341e-04
      -3.45145418e-05 7.60565817e-05 1.11170251e-04 3.92511254e-04
      -2.17702895e-04 -1.81415635e-05 -1.02160520e-05 2.11705901e-05 0.
      0. 0. 0. 0. 0. 0. 0. -1.73107983e-04 4.61776654e-05 1.59170217e-04
      1.41297132e-04 9.12432515e-05 -2.26587435e-05 3.33927019e-05
      2.97817867e-04 -2.20727015e-04 -9.66982843e-05 -2.83298086e-05
      9.15974742e-05 0. 0. 0. 0. 0. 0. 0. 7.62941090e-06 -1.26407584e-04
      4.58646209e-05 1.47249797e-04 1.53027868e-04 -4.86002013e-04
      1.66752710e-04 1.54449837e-04 2.55867548e-04 1.35240392e-04
      2.02181927e-05 2.81568209e-04 1.05106985e-04 0. 0. 0. 0. 0. 0. 0.
      -1.12898073e-04 -2.97069982e-05 8.71837256e-05 2.51275575e-04
      -1.60840791e-04 1.66504658e-04 6.38794227e-05 -1.53392320e-04
      -9.27911751e-05 2.65626091e-04 2.71054450e-04 2.63139227e-04
      1.52738561e-04 6.55074036e-05 0. 0. 0. 0. 0. 7.62941090e-06
      2.17177494e-05 -1.23174832e-04 -1.21293797e-05 -1.28574917e-04
      2.35704181e-04 2.19839174e-04 -2.90185650e-04 -3.73817864e-04
      2.25720360e-05 1.04126171e-04 4.39437019e-04 3.19179584e-04
      2.72622769e-04 8.39363929e-05 0. 0. 0. 0. 0. 1.26374711e-04
      1.41114797e-04 1.22658879e-04 1.23792524e-05 3.40118975e-04
      2.96629616e-04 -3.82976323e-05 -3.40134662e-04 -4.51115193e-04
      -7.21311808e-05 2.03593387e-04 3.06768867e-04 2.10971048e-04
      3.20015068e-04 1.85399229e-04 0. 0. 0. 0. 0. 7.85807206e-05
      3.63428262e-04 4.06504550e-04 1.60676951e-04 8.32274964e-04
      7.75227745e-05 -1.63661371e-05 -1.16551365e-03 -3.30063602e-04
      6.95610943e-05 2.14184212e-04 3.56435747e-04 2.05851742e-04
      3.20015068e-04 1.80479750e-04 0. 0. 0. 0. 0. 1.18740063e-04
      3.19278799e-04 3.33531498e-04 4.77445938e-05 6.00769825e-04
      5.33363163e-05 -7.28352286e-04 -6.97417185e-04 -1.19823919e-04
      3.23766988e-04 9.32723487e-05 2.70132150e-04 3.37282923e-04
      3.20015068e-04 1.96355511e-04 0. 0. 0. 0. 0. 1.84247459e-04
      1.25063583e-04 3.54526215e-04 1.07591681e-04 5.16685483e-04
      1.20359378e-04 -2.23921190e-04 8.68908828e-05 -5.27210832e-05
      5.51216945e-04 1.45247657e-04 2.62727030e-04 4.02385253e-04
      3.15095560e-04 7.71740160e-05 0. 0. 0. 0. 0. 1.91751373e-04
      2.53750739e-04 3.18737730e-04 2.03441450e-04 1.31091991e-04
      1.24047714e-04 -6.57865254e-04 -1.18748583e-04 1.27891864e-04
      5.66215953e-04 -4.70509622e-05 -6.23228407e-05 3.38097190e-04
      7.71740160e-05 7.62941090e-06 0. 0. 0. 0. 0. 8.66779883e-05
      1.33097885e-04 1.69649458e-04 5.01146897e-05 1.15715549e-04
      9.75247603e-05 -1.98500988e-04 -3.58058198e-04 1.36558738e-04
      -1.71354804e-05 -3.10834701e-04 -1.71440450e-04 -4.05442952e-05
      -1.71491658e-04 -1.79121067e-04 0. 0. 0. 0. 0. 2.11705901e-05
      3.12906195e-05 -1.93550513e-05 -1.00267440e-04 1.69409395e-04
      2.09753576e-04 1.77802358e-04 7.76561592e-06 5.00377442e-04
      -3.20831750e-05 -5.20215981e-05 -4.70801133e-05 -8.39575005e-05
      -1.79121067e-04 -1.79121067e-04 -1.79121067e-04 0. 0. 0. 0.
      7.50391609e-06 8.64250251e-05 8.93145261e-05 1.57514747e-04
      -1.03858365e-04 3.87526088e-04 4.47267230e-04 5.32908191e-04
      -1.79655781e-05 3.10719151e-05 1.24411541e-04 8.09983321e-05 0. 0.
      0. 0. 0. 0. 0. 0. 6.52544404e-05 6.52544404e-05 6.52544404e-05
      6.52544404e-05 7.39889147e-05 2.25475931e-04 2.18841978e-05
      5.72248382e-06 1.13377449e-04 -2.65559429e-05 -6.53581583e-06
      -6.53581583e-06 0. 0. 0. 0. 0. 0. 0. 0. 0. 0. 0. 0. 0. 0.
      4.34132053e-05 0. 0. 0. 0. 0. 0. 0. 0. 0. 0. 0. 0. 0. 0. 0. 0. 0.
      0. 0. 0. 0. 0. 0. 0. 0. 0. 0. 0. 0. 0.</_>
    <_>
      0. 0. 0. 0. 0. 0. 0. 0. 0. 0. 0. 0. 0. 0. 0. 0. 0. 0. 0. 0. 0. 0.
      0. 0. 0. 0. 0. 0. 0. -1.42205055e-04 0. 0. 0. 0. 0. 0. 0. 0. 0. 0.
      0. 0. 0. 0. 0. 0. -4.32653702e-04 -6.95195748e-04 -1.04186963e-03
      -4.32805129e-04 -3.67582106e-04 -5.79405809e-04 1.01922161e-03
      4.82045900e-04 -6.08668372e-04 -4.06743406e-04 0. 0. 0. 0. 0. 0.
      0. 0. 0. -1.66018915e-04 -6.95195748e-04 -7.05145125e-04
      5.62525975e-06 -1.16724393e-03 -5.40583751e-05 1.20974379e-04
      -8.77291721e-04 1.05830329e-03 3.66807770e-04 -6.30620052e-05
      2.45947391e-04 -1.92915686e-05 0. 0. 0. 0. 0. -8.28763041e-06
      8.82354798e-05 -1.26557876e-04 -8.03972362e-04 -9.91078559e-06
      -4.21797798e-04 -3.13975761e-04 -4.17933683e-04 -8.14704574e-04
      4.11446556e-04 -5.90265787e-04 -1.76537287e-04 2.15353415e-04
      -3.10872092e-05 -1.92915686e-05 0. 0. 0. 0. -3.67854882e-05
      -2.59866472e-04 -1.63343357e-04 -2.82654335e-04 1.80641262e-04
      -3.56839038e-04 -5.85731177e-04 -5.34625084e-04 8.98536586e-04
      5.04881958e-04 3.97383497e-04 -4.07810185e-05 -1.77904541e-04
      4.76248642e-05 5.77922736e-04 -1.92915686e-05 0. 0. 0. 0.
      -3.67854882e-05 -2.59866472e-04 -1.52574721e-04 -1.26604666e-03
      -1.96735724e-04 -5.02387702e-05 9.73402231e-04 -2.92870274e-04
      6.51034061e-05 -3.54803604e-04 -3.28363734e-04 4.57243761e-04
      2.70597491e-04 6.13466487e-04 4.74131026e-04 5.02914714e-04 0. 0.
      0. 0. 0. -2.12073472e-04 -1.70774641e-04 2.41458620e-04
      -1.11819136e-05 -9.25026761e-05 -6.32106385e-05 5.40805690e-04
      8.44905560e-04 -8.92011914e-04 4.56926355e-04 3.79531382e-04
      -1.76670670e-04 4.47072671e-04 8.29640136e-04 0. 0. 0. 0. 0. 0.
      -4.62491043e-05 1.65956526e-03 1.91530725e-03 7.78698479e-04
      5.11964958e-04 9.31889401e-04 8.22814531e-04 -1.41984096e-03
      2.35471060e-04 2.21243346e-04 1.03772106e-03 1.13329687e-03
      -1.31641733e-04 9.48643603e-04 -2.12900501e-04 0. 0. 0. 0. 0.
      1.52934634e-04 1.09447667e-03 6.26698195e-04 6.25159475e-04
      6.87959837e-04 5.08998870e-04 -3.43226566e-04 4.60899202e-04
      -7.60475115e-04 3.30284267e-04 5.52750389e-05 7.66029814e-04
      2.07505262e-04 7.87749188e-04 -7.10327804e-05 0. 0. 0. 0. 0.
      -6.35475662e-05 3.00525571e-04 5.07871970e-04 8.21526744e-04
      1.58505014e-03 2.69441312e-04 -2.91603705e-04 -2.14866898e-03
      -6.47976820e-04 1.29435677e-04 -1.49032669e-04 -1.44102989e-04
      8.56798666e-04 1.17710559e-03 1.04916238e-04 0. 0. 0. 0.
      -1.37778654e-04 4.16911964e-04 7.98615860e-04 4.03500948e-04
      -3.60138307e-04 7.93298314e-05 -3.52568866e-04 -1.83630572e-03
      -2.12737289e-03 2.39091081e-04 -1.62565382e-04 -6.83234131e-04
      2.15113632e-05 1.97826972e-04 9.44228901e-04 -2.77590407e-05
      -3.00950080e-04 0. 0. 0. -1.37778654e-04 -7.99390429e-04
      -3.49097449e-04 6.11573574e-04 8.04093652e-05 -1.50035830e-05
      1.00239890e-03 -9.04579705e-04 -4.37765237e-04 3.84747436e-05
      -2.58471584e-04 -3.38506274e-04 4.51171763e-05 8.95312987e-05
      6.29645219e-05 -2.60192028e-05 -6.65217696e-04 0. 0. 0.
      -4.52897191e-04 -7.94881489e-04 -5.74698031e-04 6.87619380e-04
      1.03074897e-04 -6.93177935e-05 4.94025648e-04 -1.12607074e-03
      -1.19701168e-03 -7.72371714e-04 1.58268289e-04 1.00042598e-04
      -2.76381848e-04 6.21444371e-04 5.42123889e-05 2.54936487e-04 0. 0.
      0. 0. -3.15118552e-04 -8.53206875e-05 3.15784710e-04
      2.72953504e-04 -1.39950658e-04 1.28703963e-04 -3.77197604e-04
      6.35452976e-04 -1.59053059e-04 -5.79515588e-04 6.70472276e-04
      -3.63641593e-04 -2.86317489e-04 -1.38196652e-03 -4.47382510e-04 0.
      0. 0. 0. 0. -7.78741087e-05 -2.21497496e-04 -5.75387385e-04
      -3.65457206e-04 -1.72227781e-04 6.36058568e-04 6.43818290e-04
      6.28119917e-04 2.42913506e-04 9.38983343e-04 -1.03626703e-03
      -2.01984963e-04 -2.46991287e-04 7.56905501e-05 -4.88728110e-04 0.
      0. 0. 0. 0. 0. -1.63733421e-04 -2.15872307e-04 -1.03315426e-04
      -7.00271514e-04 2.07940611e-04 9.94230155e-04 1.49672199e-03
      1.73069932e-03 -1.06525840e-03 -1.72119576e-03 5.58136089e-04
      3.04990914e-04 -8.28763041e-06 -8.28763041e-06 0. 0. 0. 0. 0. 0.
      5.47123083e-04 -1.78346323e-04 -2.70426593e-04 -3.88679793e-04
      -6.59144280e-05 9.12672898e-04 6.49042020e-04 6.80300931e-04
      7.17086368e-04 -4.33285459e-04 -7.55377871e-04 -7.47090206e-04 0.
      0. 0. 0. 0. 0. 0. 0. 0. 0. 0. 0. 0. 0. 0. 0. 0. 0. -7.47090206e-04
      0. 0. 0. 0. 0. 0. 0. 0. 0. 0. 0. 0. 0. 0. 0. 0. 0. 0. 0. 0. 0. 0.
      0. 0. 0. 0.</_>
    <_>
      0. 0. 0. 0. 0. 0. 0. 0. 0. 0. 0. 0. 0. 0. 0. 0. 0. 0. 0. 0. 0. 0.
      0. 0. 0. 0. 0. 0. 0. 0. 0. 0. 0. 0. 0. 0. 0. 0. 0. 0. 0. 0. 0. 0.
      0. 0. 0. 0. -3.04953981e-04 -3.21169733e-04 -6.08391478e-04
      -2.87221745e-04 -2.18621091e-04 -1.23330363e-04 -1.40156233e-04 0.
      0. 0. 0. 0. 0. 0. 0. -4.98022782e-05 -4.98022782e-05
      -4.98022782e-05 -2.73602171e-04 -4.02478763e-04 -1.12667331e-03
      -9.29510919e-04 2.83108209e-04 -9.71660193e-05 -1.10157940e-04
      2.16131026e-04 5.55840088e-04 1.07712942e-04 0. 0. 0. 0. 0. 0. 0.
      -7.00908686e-06 -2.82030291e-04 -6.65943429e-04 -7.16017152e-04
      -6.80213852e-04 -3.33550241e-04 -7.29571038e-04 2.93776593e-05
      -1.90314095e-04 3.92851565e-04 -3.52670526e-04 1.12027796e-04
      4.52276145e-04 -3.13816476e-04 0. 0. 0. 0. 0. -9.15813507e-05
      -9.88970278e-05 -3.05131805e-04 -5.87440096e-04 -6.66336680e-04
      -1.49568921e-04 9.83505524e-05 -3.27418937e-04 8.81179367e-05
      6.33961929e-04 -1.05397710e-04 -3.47293331e-04 2.44419352e-04
      2.31532336e-04 -1.77736656e-04 0. 0. 0. 0. 0. -9.18879450e-05
      -9.18879450e-05 -2.32690771e-04 -2.12562300e-04 -1.19002043e-05
      -5.99291379e-05 4.85247256e-05 -4.84762480e-04 4.91140177e-04
      -1.74650791e-04 -2.56407529e-05 -8.98148573e-05 -9.93572030e-06
      5.10397134e-04 2.92419078e-04 0. 0. 0. 0. 0. 0. -2.04815748e-04
      4.96792054e-05 5.33592189e-04 3.12940800e-04 5.17434964e-04
      4.78038019e-05 3.30636685e-04 -1.16756928e-04 -4.86118312e-04
      1.49972053e-04 6.50309434e-04 -1.20645695e-04 4.00271791e-04
      4.36798378e-04 0. 0. 0. 0. 0. 0. 0. 5.97803213e-04 6.18141959e-04
      3.91326175e-04 1.11165486e-04 6.95452152e-04 -1.79195325e-04
      -6.97212876e-04 -1.01339561e-03 -3.17209895e-04 -3.91591922e-04
      5.97239879e-04 8.07300501e-04 4.45343816e-04 2.06653276e-04 0. 0.
      0. 0. 0. 0. 8.42233188e-04 2.93476944e-04 3.65297165e-04
      -5.31777856e-04 -2.13467327e-04 5.01837746e-07 -9.36649740e-04
      -1.59625150e-03 -5.06004842e-04 -2.46534852e-04 1.73870692e-04
      -1.00005360e-04 5.67176612e-04 2.06653276e-04 0. 0. 0. 0. 0.
      2.48476106e-04 4.87588171e-04 9.97563940e-04 -5.05788885e-05
      1.29298656e-03 -2.49315781e-04 4.56116977e-04 -2.38121557e-03
      -1.09723059e-03 -1.54503985e-04 -1.12627597e-04 3.52392002e-04
      -3.51067312e-04 6.32126932e-04 0. 0. 0. 0. 0. 0. -6.64517065e-05
      6.31970353e-04 1.13342807e-03 2.98003491e-04 7.78853544e-04
      4.97874862e-04 -1.22119312e-03 -1.48434844e-03 2.79340136e-04
      2.38055203e-04 -3.18848965e-04 3.97300406e-04 3.11672920e-04
      2.48423021e-04 -8.70843942e-05 0. 0. 0. -5.66418821e-05
      -6.22525185e-05 -3.93861963e-04 5.03770018e-04 4.27329418e-04
      1.40883116e-04 7.91721512e-04 8.24699353e-04 -1.06081839e-04
      4.81076655e-04 4.39823234e-05 -4.22489276e-04 -4.15299641e-04
      1.82031028e-04 2.48098386e-05 3.47606547e-05 -8.70843942e-05 0. 0.
      0. 0. -6.20242616e-04 -6.60697115e-04 -2.15574910e-04
      1.26284416e-04 6.00162253e-04 6.79758261e-04 5.98818937e-04
      -1.22787897e-04 -2.02081515e-04 -1.78104514e-04 3.45210632e-04
      -5.58516069e-04 -4.39346419e-04 1.65952035e-04 3.52773022e-05
      -8.70843942e-05 0. 0. 0. 0. -7.35707348e-04 -6.17312267e-04
      -7.44708290e-04 5.14616841e-04 -1.86712001e-04 1.14753166e-05
      3.36627883e-04 2.69401644e-04 -4.39997559e-04 -3.39279301e-04
      5.72463498e-04 -2.65313167e-04 -3.56827222e-04 -1.39656957e-04
      -1.45490587e-04 -2.23799885e-04 0. 0. 0. 0. 0. -4.34655049e-05
      -3.20876221e-04 -1.45408907e-04 -9.35290227e-05 5.13886567e-04
      6.10660994e-04 -3.38459242e-04 -2.58719607e-04 5.75967133e-04
      8.56178740e-05 -4.78878837e-06 -1.10582769e-04 -1.31449240e-04
      -2.74890393e-04 0. 0. 0. 0. 0. 0. -2.25983560e-04 2.68177595e-04
      3.74680239e-05 -5.18348941e-04 -3.56985329e-05 4.55127069e-04
      8.21133901e-04 2.63955269e-04 -7.28999157e-06 -1.17525451e-04
      2.23727366e-05 -3.36264988e-04 -5.10905120e-05 0. 0. 0. 0. 0. 0.
      -9.22930049e-05 6.73395189e-05 6.73395189e-05 -2.85622402e-04
      -4.20741650e-04 -7.12044013e-04 -1.72387954e-04 1.12052250e-04
      -1.57857576e-04 -8.20460627e-05 3.54869808e-05 -5.25095456e-05
      -1.41903217e-06 0. 0. 0. 0. 0. 0. 0. 0. 0. 0. 0. -1.73818145e-04
      -1.73818145e-04 -3.62662220e-04 -2.68988137e-04 -1.88844060e-04
      -1.88844060e-04 0. -1.41903217e-06 0. 0. 0. 0. 0. 0. 0. 0. 0. 0.
      0. 0. 0. 0. 0. 0. 0. 0. 0. 0. 0. 0. 0. 0. 0. 0.</_>
    <_>
      0. 0. 0. 0. 0. 0. 0. 0. 0. 0. 0. 0. 0. 0. 0. 0. 0. 0. 0. 0. 0. 0.
      0. 0. 0. 0. 0. 0. 0. 0. 0. 0. 0. 0. 0. 0. 0. 0. 0. 0. 0. 0. 0. 0.
      0. 0. 0. 0. 0. 0. -1.96173710e-06 -1.96173710e-06 2.83843110e-04
      1.18971780e-04 0. 0. 0. 0. 0. 0. 0. 0. 0. 0. 0. 0. 0.
      -2.37012893e-04 -1.60047552e-04 3.02314904e-04 7.34909030e-04
      4.49314073e-04 2.74770340e-04 1.64623547e-04 -2.08042868e-04
      -1.10532266e-04 3.85537023e-05 -1.01300982e-04 0. 0. 0. 0. 0.
      -1.72091513e-05 -1.72091513e-05 0. 0. -4.45506339e-06
      -1.56592159e-05 3.79598729e-04 3.51558294e-04 3.02497327e-04
      2.88798125e-04 -1.67844682e-05 -2.18996865e-04 -5.08384801e-05
      -2.08481506e-04 -1.47346931e-04 0. 0. 0. 0. 0. -1.72091513e-05
      -1.72091513e-05 -2.06601122e-04 -9.65598156e-05 -1.36724790e-04
      1.14871204e-04 4.64636032e-05 2.24252595e-04 2.47722986e-04
      3.13102850e-04 -2.56900792e-04 9.68406312e-05 -9.14027260e-06
      2.14619387e-04 1.27224543e-04 -4.60459487e-05 0. 0. 0. 0.
      -1.72091513e-05 -1.72091513e-05 -2.06601122e-04 -9.95491064e-05
      2.51822115e-04 2.02777592e-04 -1.26949581e-05 7.34696223e-04
      5.14602580e-04 1.67825710e-04 2.52009631e-04 1.52444536e-05
      -3.46359186e-04 -1.52214285e-04 9.17568032e-05 0. 0. 0. 0. 0.
      -1.72091513e-05 -1.72091513e-05 1.76838003e-04 -2.72608246e-04
      -1.00357451e-04 2.33831903e-04 1.44318168e-04 9.48155124e-04
      3.67746747e-04 6.76220341e-04 4.83737182e-04 1.95401008e-04
      1.92781270e-04 -4.81270326e-05 0. 0. 0. 0. 0. 0. -1.72091513e-05
      3.12643417e-04 5.51833473e-05 -3.12551390e-04 6.06128815e-05
      3.68265668e-04 2.87753384e-04 -5.94323610e-05 -4.33714013e-04
      -2.23852869e-04 -9.77183299e-05 4.10576729e-04 1.82602002e-04
      3.93988361e-04 5.09539423e-05 0. 0. 0. 0. 0. 0. 1.63701960e-04
      -2.07828358e-04 -1.41890232e-05 -8.58483399e-05 -9.07331269e-05
      -1.79612442e-04 -1.03477680e-04 -7.27849198e-04 -3.73316230e-04
      -6.61013939e-04 2.22019280e-05 4.78694070e-04 6.36059092e-04
      8.81041924e-05 0. 0. 0. 0. 0. 4.80831404e-05 -4.90039347e-05
      1.12112459e-04 -3.04820598e-04 1.27865002e-04 -2.39403220e-04
      -4.31950000e-04 -7.86226301e-04 -8.74863879e-04 -7.94590858e-04
      -1.44383492e-04 1.65435762e-04 3.02750210e-04 2.28984252e-04
      1.12602604e-04 0. 0. 0. 0. 0. -2.72675188e-05 2.08608457e-04
      2.93787074e-04 -2.79447413e-04 -1.45388811e-04 -7.22270051e-05
      -6.34689932e-04 -9.73314163e-04 -1.53313580e-04 -2.97858845e-04
      -1.92381367e-06 3.76613607e-05 2.13298132e-04 9.83185528e-05
      3.46288900e-04 0. 0. 0. 0. 0. 9.55451542e-05 -2.48259370e-04
      -4.45179694e-06 -2.78794469e-04 9.95364171e-05 -1.76942136e-04
      -5.95711404e-04 -5.75408048e-04 -5.13363164e-04 -3.13159253e-04
      -2.13301711e-04 -2.26080185e-04 1.43997313e-04 -3.36827507e-05
      9.23774496e-05 0. 0. 0. 0. 1.32056575e-05 2.06805518e-04
      -2.98445841e-04 1.45774233e-04 -3.42428277e-04 9.92129135e-05
      -4.28745670e-06 -5.20304893e-04 -1.34052403e-04 -6.96841744e-05
      2.92553508e-04 -3.39142163e-04 -1.13145106e-04 2.95434904e-04
      2.55181571e-04 0. 0. 0. 0. 0. 1.32056575e-05 3.81239515e-04
      4.37247247e-04 8.03104078e-04 3.15111276e-04 9.40797210e-04
      5.71170822e-04 4.67809470e-04 -3.55871947e-04 -3.52482573e-04
      -8.50705765e-05 -3.67320405e-04 -1.90645194e-04 1.64713172e-04
      4.73103100e-05 0. 0. 0. 0. 0. 1.32056575e-05 1.13741502e-04
      2.22044939e-04 9.09305178e-04 6.56773103e-04 1.05132058e-03
      9.59865924e-04 5.53196238e-04 5.66535920e-04 4.43724857e-04
      -3.02327098e-04 -3.47108638e-04 -2.58221989e-04 8.95253761e-05
      -1.72091513e-05 0. 0. 0. 0. 0. 1.32056575e-05 0. 1.03073166e-04
      9.62455451e-05 -1.01031968e-04 2.18027504e-04 5.02321811e-04
      5.94470650e-04 3.45751236e-04 2.66921095e-04 -1.45065860e-05
      1.93508276e-05 -1.11054309e-04 0. 0. 0. 0. 0. 0. 0. 0. 0.
      -1.25799401e-04 -6.12799340e-05 -3.24741006e-04 -2.81669316e-04
      -4.08077249e-05 7.72822023e-05 9.37200966e-05 7.64149954e-05
      1.43194295e-04 0. 0. 0. 0. 0. 0. 0. 0. 0. 0. 0. 0. 0.
      -3.93052869e-05 0. 6.45194596e-05 -1.33103576e-05 -6.54390096e-05
      -8.60450673e-05 0. 0. 0. 0. 0. 0. 0. 0. 0. 0. 0. 0. 0. 0. 0. 0. 0.
      0. 0. 0. 0. 0. 0. 0. 0. 0. 0. 0.</_>
    <_>
      0. 0. 0. 0. 0. 0. 0. 0. 0. 0. 0. 0. 0. 0. 0. 0. 0. 0. 0. 0. 0. 0.
      0. 0. 0. 0. 0. 0. 0. 0. 0. 0. 0. 0. 0. 0. 0. 0. 0. 0. 0. 0. 0. 0.
      0. 0. 0. 0. 0. -1.64055848e-04 -4.46135091e-04 -3.16615915e-04
      4.38663585e-04 2.77114596e-04 3.45366752e-05 -1.74012210e-04
      -1.74012210e-04 -1.74012210e-04 0. 0. 0. 0. 0. 0. 0.
      -5.95631253e-04 -5.95631253e-04 2.37674263e-04 2.19478054e-04
      -3.29957285e-04 1.16941333e-03 1.25538569e-03 -2.69407843e-04
      -2.39323999e-05 -1.02052849e-03 -5.59820692e-05 1.50918946e-04
      -4.53508364e-05 0. 0. 0. 0. 0. 0. 0. -7.07593630e-04
      -9.39348945e-04 2.32704027e-04 5.22415503e-05 -1.09393545e-03
      4.30941524e-04 1.32902956e-03 6.37683319e-04 1.67436563e-04
      1.96576530e-05 1.37836287e-05 -2.39365982e-04 -3.32564348e-04
      -2.52685481e-04 -2.52685481e-04 0. 0. 0. 0. -1.11962370e-04
      -2.76659295e-04 -5.29189128e-04 1.41574754e-04 2.57265056e-05
      -4.43551166e-04 2.31938568e-04 5.08493453e-04 1.44614617e-03
      1.63577424e-04 -1.77304188e-04 -7.75827328e-04 -6.19698665e-04
      -6.07908703e-04 -6.81528589e-04 0. 0. 0. 0. 0. -8.44740061e-05
      4.71653984e-05 -4.92754683e-04 4.39628639e-04 -6.21500731e-05
      -1.07701740e-03 5.70599746e-04 7.52058928e-04 5.43615723e-04
      1.24633592e-03 -1.97640751e-04 -1.16835123e-04 -4.62581782e-04
      -1.37755298e-03 -6.02304412e-04 -5.22354567e-05 0. 0. 0. 0.
      -5.61323250e-04 -4.30007116e-04 -2.22684350e-04 -6.52635819e-04
      -1.45556184e-03 -8.18922475e-04 3.04758316e-04 -9.74546565e-05
      6.91193854e-05 1.38832582e-03 4.70251747e-04 1.52402639e-03
      1.05952320e-03 6.50123911e-05 -2.69240671e-04 0. 0. 0. 0. 0.
      2.20785048e-04 4.07801301e-04 4.61414689e-04 3.03546694e-05
      2.84623384e-04 -5.25811338e-04 -1.30616734e-03 -8.30532226e-04
      2.75304919e-04 -1.37371040e-04 7.26976956e-04 2.41065235e-03
      1.23556249e-03 1.09023694e-03 -9.17053112e-05 0. 0. 0. 0. 0.
      8.71334341e-04 -7.70962579e-05 -5.42190217e-04 4.88434569e-04
      -7.43749551e-04 -5.73246973e-04 -1.02425192e-03 -1.38398737e-03
      -3.59553087e-04 3.60086065e-04 3.93130147e-04 1.64012774e-04
      2.42212252e-03 4.70698113e-04 0. 0. 0. 0. 0. 5.40842811e-05
      7.63565768e-04 1.19234424e-03 -1.87424448e-04 5.93883160e-04
      -5.23578376e-04 -4.20094002e-04 -2.26852763e-03 -1.03540439e-03
      2.27237935e-04 6.59326906e-04 1.15632068e-03 -7.31512206e-04
      1.01198815e-03 -2.42708309e-04 0. 0. 0. 0. 0. 2.75098195e-04
      8.78548075e-04 1.14065723e-03 4.29700362e-04 3.20557621e-04
      5.47670716e-05 -9.17629921e-04 -1.44589460e-03 9.91400564e-04
      4.14588721e-04 2.26458826e-04 -1.62802666e-04 -1.68273255e-04
      7.60983501e-04 -3.94690491e-04 0. 0. 0. 0. 0. 7.44108984e-04
      1.10267091e-03 9.82852769e-04 1.27187232e-03 1.04002969e-03
      6.17755519e-04 -3.69840855e-04 4.31012522e-05 8.71533266e-05
      -3.41180159e-04 6.29353046e-04 -5.89421097e-06 1.64659927e-04
      5.57975029e-04 -7.39676703e-04 -4.56455455e-04 0. 0. 0. 0.
      -5.64116954e-06 4.63879696e-05 -3.29713104e-04 9.19784768e-04
      1.59692997e-03 2.83698668e-04 -2.01765192e-03 -6.33843738e-05
      -2.07548233e-04 2.52726692e-04 2.99756590e-04 3.64789361e-04
      4.28793806e-04 8.44681999e-05 -5.68417832e-04 0. 0. 0. 0. 0.
      -1.88939433e-04 2.00419105e-04 8.56707193e-05 -4.58237664e-05
      4.37607785e-04 1.76553600e-04 -6.53502284e-05 2.64707283e-04
      -1.16657529e-05 -7.91989616e-04 -4.80517192e-05 -8.13337741e-04
      3.74903553e-04 -5.81391971e-04 -5.68417832e-04 0. 0. 0. 0.
      -7.69331935e-04 3.14192061e-04 -1.96856752e-04 -2.66109506e-04
      -1.65996564e-04 5.63870126e-04 5.49321237e-04 -3.14044955e-05
      2.82500958e-04 4.97685469e-05 -1.58002204e-03 -7.67688092e-04
      -4.55165078e-04 -5.38193381e-05 -5.81391971e-04 0. 0. 0. 0. 0. 0.
      0. 1.40241042e-04 -2.29587837e-04 6.45283202e-04 -2.39319372e-04
      7.17902090e-04 8.65639071e-04 4.95863555e-04 -8.02343362e-04
      -4.14300797e-04 -8.29388970e-04 -1.24554217e-05 -1.24936516e-04 0.
      0. 0. 0. 0. 0. 0. 3.07839509e-04 3.07839509e-04 9.85923471e-05
      -7.38007438e-05 -7.47656974e-04 3.44921515e-04 4.72805696e-05
      -5.83149202e-04 7.56561290e-04 7.92871404e-04 0. 0. 0. 0. 0. 0. 0.
      0. 0. 0. 0. 0. 0. -5.22354567e-05 -7.80611881e-05 0.
      1.32611895e-04 0. 0. 0. 0. 0. 0. 0. 0. 0. 0. 0. 0. 0. 0. 0. 0. 0.
      0. 0. 0. 0. 0. 0. 0. 0. 0. 0. 0. 0. 0.</_>
    <_>
      0. 0. 0. 0. 0. 0. 0. 0. 0. 0. 0. 0. 0. 0. 0. 0. 0. 0. 0. 0. 0. 0.
      0. 0. 0. 0. 0. 0. 0. 0. 0. -2.64474715e-04 -3.32812517e-04
      -4.39067808e-04 0. 0. 0. 0. 0. 0. 0. 0. 0. 0. 0. 0.
      -1.38958276e-04 -4.95283632e-04 -3.13697557e-04 -4.25441220e-04
      1.27488136e-04 -8.07672041e-04 5.91905264e-04 -4.75540495e-04
      7.10421009e-05 -8.37526386e-05 -8.37526386e-05 0. 0. 0. 0. 0. 0.
      0. -6.42185114e-05 -2.03176780e-04 -4.95283632e-04 -6.12062286e-04
      1.71274092e-04 2.57032225e-04 1.34600338e-03 7.79529393e-04
      6.88690925e-04 -8.38004111e-04 -6.69315632e-04 -4.03926184e-04
      -3.63916246e-04 0. 0. 0. 0. 0. 0. 0. -6.42185114e-05
      -1.38958276e-04 -3.68496927e-04 -4.00835386e-04 2.45047268e-04
      4.07599175e-04 8.91529024e-04 4.37553972e-04 5.32736187e-04
      -6.35250908e-05 4.45647340e-04 5.49682591e-04 4.27789237e-05
      -3.34474113e-04 -3.34474113e-04 -3.34474113e-04 0. 0. 0. 0.
      -2.03176780e-04 -5.45940602e-05 1.89402737e-04 -1.45042228e-04
      -1.98045644e-04 1.44021338e-04 5.65566123e-04 2.98132101e-04
      1.30459853e-03 7.60531344e-04 1.48903916e-03 -7.62665004e-05
      8.53593883e-05 1.31348221e-04 -3.34474113e-04 0. 0. 0. 0.
      -6.42185114e-05 -2.03176780e-04 6.30034701e-05 -2.91144475e-04
      7.70956918e-04 -1.56997703e-04 -7.52641179e-04 5.87999006e-04
      6.68027846e-04 1.11557753e-03 1.70173740e-03 6.55416399e-04
      5.36295178e-04 -5.19636553e-04 5.52619342e-04 0. 0. 0. 0. 0.
      -6.42185114e-05 1.88658145e-04 8.23826995e-05 -2.02941563e-04
      -7.72617059e-05 2.42432812e-04 2.84594862e-04 2.67721596e-04
      1.03197747e-03 1.94953254e-03 5.48998418e-04 4.55299771e-04
      1.14607136e-03 3.66814493e-04 5.23184717e-04 0. 0. 0. 0. 0.
      -6.42185114e-05 6.65725165e-05 6.47574838e-04 -3.71330156e-04
      -1.76675501e-04 8.39806569e-04 -2.62397283e-04 -1.56285967e-06
      -2.22732022e-04 -2.99996573e-05 1.52267530e-04 1.17234886e-03
      7.95285974e-04 3.21995787e-04 -1.81874493e-05 0. 0. 0. 0. 0.
      1.04293926e-04 2.90697353e-04 1.10452595e-04 -5.18443994e-04
      1.54969857e-05 -2.08910482e-04 -4.09515371e-04 -6.86651270e-04
      -5.05279226e-04 -5.46508585e-04 -5.83282846e-04 4.79500653e-04
      4.65789024e-04 2.31738450e-04 1.60431882e-04 0. 0. 0. 0. 0.
      -3.37114529e-04 7.92544452e-04 -2.55220311e-05 -6.77488511e-04
      5.51906815e-05 -6.94119604e-04 1.39327885e-05 -1.95302523e-03
      -5.43514325e-04 -8.46665585e-04 1.38286065e-04 1.26580577e-04
      -8.10221827e-04 1.92213018e-04 -1.07538268e-04 -1.68642990e-04 0.
      0. 0. 0. -1.33910347e-04 2.37891538e-04 -1.09499037e-04
      -3.49666429e-04 -6.46086060e-04 -4.67607570e-05 -1.37502048e-03
      -1.68808631e-03 -4.45328740e-04 -1.12043512e-04 2.95031321e-04
      9.43710547e-05 2.80769658e-04 -8.57553532e-05 3.29283619e-04 0. 0.
      0. 0. 0. -8.78485880e-05 1.76748159e-04 3.38632199e-05
      -4.89558093e-04 -2.36113745e-04 4.64372220e-04 -7.91440616e-05
      -7.74979882e-04 -6.99990895e-04 4.35782247e-04 -3.83770966e-04
      -7.92868377e-04 -1.31435765e-04 -1.41237950e-04 6.02826585e-05 0.
      0. 0. 0. 0. 1.83136843e-04 -1.83569209e-04 6.66195294e-04
      -2.45387171e-04 -6.50680959e-05 -9.10820600e-05 -3.33880424e-04
      -2.43984614e-05 -4.42291639e-04 5.74033998e-04 -1.56232272e-04
      -5.64681133e-04 1.63562017e-05 -5.23259863e-04 0. 0. 0. 0. 0. 0.
      2.20584232e-04 8.93092249e-04 5.39496948e-04 -2.48013675e-04
      5.66913630e-04 -1.27455787e-04 3.00254731e-04 -8.71789409e-04
      -4.33886220e-04 -6.28229289e-04 -2.02389041e-04 1.78301154e-04
      -4.52415406e-04 1.56961702e-04 0. 0. 0. 0. 0. 0. 1.78003771e-04
      2.88114214e-04 7.45802245e-04 3.68072477e-04 1.53927554e-04
      6.98129821e-04 -1.63158475e-04 -2.03256655e-04 1.48687861e-04
      -6.77087577e-04 -1.13325508e-03 -3.87005159e-04 2.24348594e-04 0.
      0. 0. 0. 0. 0. 0. 0. 9.56191361e-05 2.45533738e-04 5.23440191e-04
      1.86632300e-04 1.15167117e-03 5.39106724e-04 -1.20473997e-05
      3.10468487e-04 4.47534898e-04 2.35513682e-04 -2.31613394e-05 0. 0.
      0. 0. 0. 0. 0. 0. 0. 0. 0. 0. 0. 1.29636595e-04 1.44146587e-04
      1.44146587e-04 1.45099821e-05 1.45099821e-05 0. 0. 0. 0. 0. 0. 0.
      0. 0. 0. 0. 0. 0. 0. 0. 0. 0. 0. 0. 0. 0. 0. 0. 0. 0. 0. 0. 0. 0.
      0. 0. 0. 0. 0. 0. 0. 0. 0. 0. 0. 0. 0. 0. 0. 0. 0. 0.</_>
    <_>
      0. 0. 0. 0. 0. 0. 0. 0. 0. 0. 0. 0. 0. 0. 0. 0. 0. 0. 0. 0. 0. 0.
      0. 0. 0. 0. 0. 0. 0. 0. 0. 0. 0. 0. 0. 0. 0. 0. 0. 0. 0. 0. 0. 0.
      0. 0. 0. 0. 0. 0. 0. 6.61854892e-06 3.68261622e-04 0. 0. 0. 0. 0.
      0. 0. 0. 0. 0. 0. 0. 0. 4.89865306e-06 4.89865306e-06
      -1.68819693e-04 7.29985331e-05 8.19736277e-04 8.02499475e-04
      7.33066932e-04 2.52842525e-04 1.86361343e-04 2.79292690e-05
      5.62626701e-06 5.62626701e-06 0. 0. 0. 0. 0. 0. 0. -3.61370359e-04
      -3.61370359e-04 1.36371847e-04 1.33666879e-04 2.51566700e-04
      3.95268522e-04 3.02779226e-04 5.88057621e-04 6.85075574e-05
      -3.05200701e-05 2.47092161e-04 3.08191047e-05 5.62626701e-06 0. 0.
      0. 0. 0. 0. -3.61370359e-04 -3.84418876e-04 -2.83338246e-04
      -2.02132942e-04 3.70880123e-04 -5.06434953e-05 1.30067681e-04
      2.20104092e-04 2.43680901e-04 -3.94114293e-04 1.57384624e-04
      3.73510731e-04 3.24142107e-04 5.75181875e-05 0. 0. 0. 0.
      -1.17900585e-04 -2.23530529e-04 -5.77100785e-04 -8.63172405e-04
      -5.22593618e-04 3.48611647e-04 -1.27100138e-04 3.10628413e-04
      2.00682232e-04 2.04102005e-04 -4.62542055e-04 2.86234339e-04
      -4.11559566e-04 -2.09452410e-04 -1.39269963e-04 1.88843478e-04 0.
      0. 0. 0. -1.17900585e-04 -4.26490937e-04 -3.52252770e-04
      -7.51465268e-05 -5.18533889e-05 2.39699482e-04 -2.54341547e-04
      4.20857832e-05 5.79827232e-04 -2.05551216e-04 -1.95352593e-04
      -2.57939479e-04 -2.61135312e-04 -2.00556693e-04 -3.81086757e-05 0.
      0. 0. 0. -1.58701994e-04 -2.02960407e-04 -3.00790271e-04
      8.89019502e-05 3.92685353e-04 3.00823478e-04 2.61424022e-04
      4.19498247e-04 5.98349397e-05 9.23829284e-05 -7.55381014e-04
      7.91534330e-06 -6.05730638e-05 2.93955585e-04 5.95489364e-05
      -8.79522759e-06 -1.34221250e-06 0. 0. 0. 0. -2.20273214e-04
      -2.51664984e-04 2.86484807e-04 1.20193999e-05 -9.29732196e-05
      2.23790412e-05 3.47792811e-04 2.19174195e-04 -3.35081713e-04
      -4.47331200e-04 -2.44936498e-04 -4.93527157e-04 7.47491795e-05
      -4.19478165e-05 3.83266597e-04 1.86262638e-04 0. 0. 0. 0.
      -1.73127992e-05 -2.00155948e-04 -1.48322961e-05 2.33388258e-04
      -8.13440784e-05 5.12542611e-04 2.51334277e-04 3.87217005e-04
      -6.82206417e-04 -5.37000771e-04 -2.59866676e-04 2.24610540e-05
      -4.29280772e-04 -7.56027875e-05 2.06625133e-04 1.86262638e-04 0.
      0. 0. 0. 0. -6.93137641e-04 6.85259438e-05 4.26579994e-04
      1.70939966e-05 1.33482419e-04 2.19959504e-04 -6.34650583e-04
      -9.82297468e-04 -3.29088973e-04 -4.19186457e-04 -2.77771731e-04
      -5.49140987e-06 6.21012878e-04 3.73587303e-04 3.15643527e-04 0. 0.
      0. 0. 0. 6.46773551e-05 5.55176812e-04 9.69026805e-05
      2.30887963e-04 7.94548658e-04 3.95057810e-04 -1.02965401e-04
      -1.63123812e-04 -5.41979622e-04 -2.26407516e-04 -1.58991010e-04
      3.80065176e-04 5.34620427e-04 5.96079743e-04 3.85091727e-04 0. 0.
      0. 0. 3.44448985e-04 1.51672284e-04 1.05841341e-03 1.34833704e-03
      1.00360706e-03 7.29116611e-04 5.18252375e-04 1.15065915e-04
      -5.91296848e-05 -2.44786206e-04 2.38571796e-04 -5.17589651e-05
      2.89499367e-05 2.42396796e-04 2.81701301e-04 -2.47580087e-04 0. 0.
      0. 0. 3.44448985e-04 5.97658509e-04 9.06063477e-04 8.99470935e-04
      6.97947515e-04 5.90609736e-04 5.66489878e-04 1.41269382e-04
      -6.89082663e-04 2.96233717e-04 -1.16679526e-04 -8.90044030e-05
      -5.10798745e-05 1.36549570e-05 1.13790287e-04 0. 0. 0. 0. 0.
      3.44448985e-04 2.57979933e-04 3.67331813e-04 7.64748722e-04
      5.18499546e-05 5.72036195e-04 3.53661075e-04 4.19649186e-05
      -1.71416559e-05 8.30748875e-04 -2.30492980e-04 3.59774334e-04
      1.79373150e-04 -1.80734132e-05 0. 0. 0. 0. 0. 0. 3.44448985e-04
      -1.82587173e-04 1.10508438e-06 -9.25397690e-05 -1.75260517e-04
      2.13306586e-04 5.38776687e-04 6.87072461e-04 2.28521152e-04
      -3.26961163e-04 2.94786645e-04 2.85003101e-04 1.45451952e-04
      -2.69155309e-04 0. 0. 0. 0. 0. 0. 0. -2.41551006e-05
      -1.80465489e-04 -3.64611915e-04 -1.38567761e-04 -3.16653488e-04
      -2.84845039e-04 -1.24175931e-04 -1.78314425e-04 -1.01195219e-04
      1.71212800e-04 0. -1.05629937e-04 -2.69155309e-04 0. 0. 0. 0. 0.
      0. 0. -7.55803776e-05 -7.55803776e-05 -2.61348090e-04
      -1.30068831e-04 -6.53383031e-04 -4.04492370e-04 5.75587255e-05
      -3.65009008e-04 -2.25550233e-04 0. 0. 0. -2.69155309e-04
      -1.05629937e-04 0. 0. 0. 0. 0. 0. 0. 0. 0. 0. 0. 0. 0. 0. 0. 0. 0.
      0. -2.69155309e-04 0. 0. 0. 0.</_>
    <_>
      0. 0. 0. 0. 0. 0. 0. 0. 0. 0. 0. 0. 0. 0. 0. 0. 0. 0. 0. 0. 0. 0.
      0. 0. 0. 0. 0. 0. 0. 0. 0. 0. 0. 0. 0. 0. 0. 0. 0. 0. 0. 0. 0. 0.
      0. 0. 0. 0. 0. 0. 0. 0. 2.75825354e-04 -1.05988067e-04 0. 0. 0. 0.
      0. 0. 0. 0. 0. 0. 0. 0. 2.90946045e-05 -2.90872442e-04
      -8.46627576e-04 -2.68319011e-04 6.52070739e-04 2.22391027e-04
      2.33454757e-05 1.40830627e-04 -2.37876782e-04 8.14581581e-05
      -5.68319638e-06 0. 0. 0. 0. 0. 0. 0. 0. -2.41542730e-04
      -1.94500928e-04 -3.34541226e-04 -5.54312544e-04 -2.64817034e-04
      1.22560232e-04 7.70452025e-05 1.49057683e-04 -5.15835069e-04
      4.81880816e-05 -6.23299275e-05 -7.11779503e-05 -6.68434368e-05 0.
      0. 0. 0. 0. 0. -6.44542233e-05 4.64113109e-05 -2.55033112e-04
      -2.78904889e-04 -8.56183295e-04 -2.07163437e-04 6.27672474e-04
      4.84744785e-04 -2.97657189e-05 -2.41739850e-04 7.08523876e-05
      -4.19360469e-04 -2.15479216e-04 -6.68434368e-05 0. 0. 0. 0. 0. 0.
      8.64930553e-06 -3.02655186e-04 -4.05018887e-04 -4.20869066e-04
      -6.70759891e-06 -6.86791027e-04 4.02949372e-04 -1.93661399e-04
      2.82370747e-04 -2.06908575e-04 -4.27256055e-05 -1.79444643e-04
      -2.80199984e-05 -1.67875289e-04 0. 0. 0. 0. 0. -6.44542233e-05
      -2.47974123e-04 -8.91693489e-05 -3.21966800e-04 -8.25500247e-05
      -3.18283594e-04 -3.17470608e-06 1.20940756e-04 -4.02639649e-04
      6.90933259e-04 3.81788821e-04 -3.86943168e-04 2.33190694e-05
      2.95659793e-05 -3.86539527e-04 -7.72480125e-05 0. 0. 0. 0.
      1.09164183e-04 -1.80565359e-04 1.38915289e-04 -1.73012508e-04
      -2.44875875e-04 5.69692347e-04 -1.00871672e-04 -1.51368906e-04
      -3.23756944e-06 3.04429355e-04 -2.34948500e-04 2.90810771e-04
      1.20687349e-04 3.56314646e-04 -2.90556578e-04 0. 0. 0. 0. 0.
      1.09164183e-04 3.03875131e-04 1.60012030e-04 2.07859106e-04
      -3.14702425e-04 7.66958547e-05 -5.80213906e-04 -9.22251027e-04
      -1.71293993e-03 2.23264258e-04 1.36666757e-04 5.07570338e-04
      -1.37267620e-04 5.49180899e-04 1.39251511e-04 0. 0. 0. 0. 0.
      2.19003909e-04 9.12816977e-05 -8.12170128e-06 -1.07312182e-04
      2.93945777e-04 -5.25203301e-04 -5.72762219e-04 -2.21276493e-03
      -1.21573114e-03 -6.08585542e-04 -3.10682117e-05 4.76235495e-04
      2.41771893e-04 2.94051453e-04 -1.61569027e-04 0. 0. 0. 0. 0.
      1.44400939e-04 2.37717017e-04 7.60754745e-04 9.32451730e-05
      3.38514765e-05 -1.08565460e-03 -1.43073697e-03 -2.34062062e-03
      -8.84525711e-04 -5.98780345e-04 -2.43442028e-05 7.63179502e-04
      2.79795728e-04 2.03648422e-04 2.18665693e-04 0. 0. 0. 0. 0.
      1.78071976e-04 -4.44147372e-05 5.94901561e-04 2.01107410e-04
      6.71077141e-05 -2.00283248e-04 -2.03531803e-04 9.32822077e-05
      -3.78399825e-04 6.00385247e-05 -2.59434728e-05 3.52215575e-04
      7.11405650e-04 2.53114238e-04 6.75970587e-05 0. 0. 0. 0. 0.
      1.37494435e-05 1.69295730e-04 2.91655771e-04 4.80701041e-04
      5.28881152e-04 2.65405746e-04 -8.56552331e-04 2.01813687e-04
      4.78054717e-04 1.05244818e-03 3.96099815e-04 1.26220330e-04
      4.28094412e-04 1.97259651e-04 2.63832226e-05 0. 0. 0. 0. 0.
      1.03092507e-05 1.65902438e-05 4.89778817e-04 6.71662701e-06
      5.09442063e-04 8.98367609e-04 4.61437710e-04 2.46249023e-04
      7.41210475e-04 1.60506504e-04 -4.88788763e-04 7.12003603e-05
      -1.86550140e-04 1.17378928e-04 0. 0. 0. 0. 0. 0. 3.18058010e-05
      2.62560730e-04 2.99902138e-04 -1.59232935e-04 5.70973149e-04
      -1.06817737e-04 1.32814457e-04 -1.67350547e-04 3.12786055e-04
      -3.93575145e-04 -1.52154069e-04 1.74120185e-04 -1.37831914e-04
      -6.44542233e-05 0. 0. 0. 0. 0. 0. 0. 2.48290569e-04 6.50699367e-05
      3.77565128e-04 -4.17396746e-04 3.46358051e-04 5.75005775e-04
      1.51134609e-05 -2.78514373e-04 2.01895353e-04 6.53224939e-04
      -2.20407732e-04 -2.41542730e-04 0. 0. 0. 0. 0. 0. 0.
      1.25769846e-04 -1.83821214e-06 1.93165524e-05 -6.30263894e-05
      3.77545584e-05 -1.49961115e-05 -3.00915941e-04 -4.77282301e-04
      7.48011080e-05 2.47241027e-04 -1.54771100e-04 -2.41542730e-04 0.
      0. 0. 0. 0. 0. 0. 0. 0. 0. 0. 0. 0. 8.49252319e-05 7.96098611e-05
      -3.95588286e-05 0. 0. 0. 0. 0. 0. 0. 0. 0. 0. 0. 0. 0. 0. 0. 0. 0.
      0. 0. 0. 0. 0. 0. 0. 0. 0. 0. 0. 0.</_>
    <_>
      0. 0. 0. 0. 0. 0. 0. 0. 0. 0. 0. 0. 0. 0. 0. 0. 0. 0. 0. 0. 0. 0.
      0. 0. 0. 0. 0. 0. 0. 0. 0. 0. 0. 0. 0. 0. 0. 0. 0. 0. 0. 0. 0. 0.
      0. 0. 0. 0. 4.28780622e-05 4.28780622e-05 7.00628079e-05
      7.00628079e-05 4.04298538e-04 6.92933754e-05 6.92933754e-05 0. 0.
      0. 0. 0. 0. 0. 0. 0. 0. 0. 0. -2.42303417e-04 -3.29646544e-04
      1.77152571e-04 7.17123388e-04 4.08729335e-04 4.48098843e-04
      1.89258251e-04 2.67316675e-04 8.26743708e-05 8.26743708e-05 0. 0.
      0. 0. 0. 0. 0. 0. 0. -4.15019633e-04 -5.35911298e-04
      8.42549998e-05 1.81971307e-04 1.17263546e-04 3.09324329e-04
      -3.03519279e-04 2.69252814e-05 -6.04521774e-04 1.62743570e-04
      8.26743708e-05 0. 0. 0. 0. 0. 0. 0. 0. 3.25056229e-04
      -5.22671617e-05 -4.65284742e-04 1.41456167e-05 4.60589683e-04
      -6.74301060e-04 1.79356837e-04 5.24594914e-04 4.60874930e-04
      -5.02393697e-04 7.17965246e-04 4.90997918e-04 3.65171727e-04 0. 0.
      0. 0. 0. 0. 3.25056229e-04 -7.41134980e-04 -7.63171265e-05
      -1.87806640e-04 3.10874835e-04 2.37067743e-05 -1.07214582e-05
      6.18041318e-04 3.48537200e-04 2.39619869e-04 -4.90274047e-04
      1.87094411e-04 9.29029047e-05 3.65171727e-04 0. 0. 0. 0. 0. 0.
      -3.35659570e-04 -6.24855107e-04 -4.87722660e-04 -1.96495035e-04
      -7.11075612e-04 4.57563787e-04 7.88675330e-04 9.20730468e-04
      -3.73935691e-05 -8.55558828e-05 -4.82995092e-05 -7.72114960e-04
      -6.62976454e-05 0. 0. 0. 0. 0. 0. 3.68519795e-05 -3.58445512e-04
      -3.31337156e-04 -9.50780159e-05 -6.76666445e-04 -7.73964566e-05
      -3.79077363e-04 -6.19129743e-04 -5.81560191e-04 -5.74254809e-05
      3.68745328e-04 1.07603220e-04 -5.32098580e-04 1.39508717e-04
      1.43227473e-04 0. 0. 0. 0. -1.06375497e-04 -4.80664079e-04
      -6.56748191e-04 -2.47846125e-04 -9.41223880e-06 2.56550411e-04
      2.83731002e-04 -4.91939900e-05 -9.78418393e-04 -1.67528098e-03
      -1.03157063e-05 -1.36987865e-03 5.76149105e-05 4.60976589e-04
      7.63583172e-04 3.55848257e-04 0. 0. 0. 0. -1.06375497e-04
      -6.84597217e-06 6.91232388e-04 6.12216070e-04 -9.45770735e-05
      1.28780631e-03 5.31070051e-04 -3.52834642e-04 -1.37522572e-03
      -7.23847945e-04 -1.23760896e-03 -6.68714463e-04 -4.26258310e-04
      6.70558191e-04 2.36864798e-04 4.25911072e-04 0. 0. 0. 0. 0.
      4.76832071e-07 -1.31035587e-04 8.25003197e-04 3.32196942e-04
      4.07455460e-04 3.04110319e-04 -9.22778156e-04 -1.20918278e-03
      -7.88195175e-04 1.58913590e-05 -1.28907326e-04 1.78040980e-04
      -2.89947959e-04 4.83666750e-04 3.59375787e-04 0. 0. 0. 0. 0.
      2.93300836e-04 4.39686148e-04 -1.28366528e-05 8.67693088e-05
      6.41985796e-04 3.98851815e-04 -2.89576215e-04 -5.85498929e-04
      -2.07740974e-04 -5.54067781e-04 -2.53302249e-04 -1.93971398e-04
      5.38733555e-04 2.44626630e-04 4.45897313e-04 0. 0. 0. 0. 0.
      4.12721856e-04 7.62862794e-04 5.57312334e-04 -2.35303305e-04
      9.76860683e-05 2.09227128e-05 -5.90271142e-04 -4.17165575e-04
      2.80638167e-04 -2.00252005e-04 3.88975954e-04 -2.96492886e-04
      8.16779910e-04 -1.09556859e-04 -3.12296819e-04 0. 0. 0. 0. 0.
      4.30624670e-04 5.12977895e-05 8.26065429e-04 7.20578129e-04
      9.74533148e-04 5.07685822e-04 8.55006510e-04 8.86362395e-05
      2.16943212e-04 8.84266847e-05 -4.09038068e-04 -1.88202437e-04
      5.59796172e-04 -4.18672309e-04 -6.12082134e-04 0. 0. 0. 0. 0.
      2.80219043e-04 2.10176891e-04 1.63619741e-04 4.98256064e-04
      8.02810478e-04 8.33228347e-04 -4.38534858e-04 -4.55736328e-04
      3.39937775e-04 -4.29674779e-04 1.55869755e-04 2.65388226e-04
      2.54929128e-05 -6.31936127e-04 -6.12082134e-04 0. 0. 0. 0. 0. 0.
      3.02600820e-04 -2.84496229e-04 3.50476883e-04 8.96078185e-04
      5.87552204e-04 1.16003130e-03 8.79741216e-04 -4.77183174e-04
      -8.47566582e-04 2.64820614e-04 1.15792973e-05 -1.87770886e-04
      -7.18342999e-05 0. 0. 0. 0. 0. 0. 1.15348928e-04 1.15348928e-04
      -1.20483834e-04 -1.46338076e-04 -6.07384485e-04 8.97402933e-05
      -3.37422796e-04 7.33504276e-05 -5.97854378e-05 2.71347726e-05
      -1.68785016e-04 -2.88206036e-04 -1.67916922e-04 -2.02458119e-04 0.
      0. 0. 0. 0. 0. 0. -6.42042733e-06 -1.27664462e-04 -1.53518704e-04
      -3.98095028e-04 -1.65711317e-04 -3.48759146e-04 -5.91980061e-04 0.
      0. -2.03326214e-04 -2.47467600e-04 0. 0. 0. 0. 0. 0. 0. 0. 0. 0.
      0. 0. 0. 0. 0. 0. 0. 0. 0. 0. 0. 0. 0. 0. 0.</_>
    <_>
      0. 0. 0. 0. 0. 0. 0. 0. 0. 0. 0. 0. 0. 0. 0. 0. 0. 0. 0. 0. 0. 0.
      0. 0. 0. 0. 0. 0. 0. -1.25275610e-03 0. -3.13418423e-04 0. 0. 0.
      0. 0. 0. 0. 0. 0. 0. 0. 0. 0. 0. 0. 0. -1.80880527e-03
      9.32874173e-05 1.32124536e-04 1.20570592e-03 -9.46700864e-04 0.
      -1.54005829e-04 0. 0. 0. 0. 0. 0. 0. 0. 0. -2.18639441e-04
      1.45174257e-04 1.66221044e-03 -9.84963728e-04 -6.29564456e-04
      -9.74653289e-04 -6.62246835e-04 9.87476305e-05 -9.29792179e-04
      4.25239035e-04 3.28587776e-05 0. 3.70051654e-04 0. 0. 0. 0. 0. 0.
      -2.18639441e-04 -2.39882196e-04 -1.06875633e-03 2.97798018e-04
      -1.82439806e-03 -1.07346871e-03 4.78561647e-04 -1.09817705e-03
      4.86569079e-05 -8.07762088e-04 5.39248111e-04 -3.97183539e-05
      8.94668978e-04 3.70051654e-04 0. 0. 0. 0. 0. 0. 0. -1.51664449e-03
      -8.28611664e-04 -1.12117350e-03 1.03181999e-04 -7.89801416e-04
      -1.23964783e-04 2.07238962e-04 2.85308750e-04 -3.12860007e-04
      5.31450671e-04 -7.01376703e-05 -1.75478326e-05 1.11001449e-04 0.
      0. 0. 0. 0. 0. 0. -1.51664449e-03 -7.88475678e-04 -8.17686785e-04
      -4.71007195e-04 1.49606756e-04 -1.02392444e-03 7.02323159e-04
      2.85951421e-04 6.94720889e-04 -9.83801074e-05 -4.44404752e-04
      -1.98976646e-04 0. 0. 0. 0. 0. 0. 0. 0. 7.28168874e-04
      3.03486711e-04 -2.15047083e-04 5.20801521e-04 -6.40599406e-04
      7.91595317e-04 5.21953974e-04 5.83278539e-04 2.89839227e-04
      -2.30733480e-04 -4.50820575e-04 -1.55972259e-04 0. 0. 0. 0. 0. 0.
      0. 0. 7.28168874e-04 1.63489836e-03 6.68003515e-04 1.26094080e-03
      4.07956162e-04 1.16045878e-03 1.16388116e-03 1.34057787e-04
      7.45727630e-06 -1.20570017e-04 -3.09978088e-04 -7.54427674e-05
      -2.46967742e-04 -2.46967742e-04 -1.71524982e-04 0. 0. 0. 0. 0.
      -2.92708515e-04 4.35460359e-04 7.22746598e-04 -9.09073686e-04
      1.56942091e-03 2.64625857e-03 2.24478287e-03 1.17857812e-03
      3.13971686e-04 -9.45442938e-04 -4.00973571e-04 -2.46967742e-04
      -5.43277129e-04 -4.67834325e-04 -2.59221531e-04 0. 0. 0. 0. 0.
      -2.95786565e-04 -6.13287149e-04 -1.44339807e-04 -4.34063957e-04
      -5.92327560e-04 1.33977295e-03 1.36329769e-03 -5.19805239e-04
      8.26905656e-04 -1.24434475e-03 -4.67834325e-04 -2.96309358e-04
      -2.96309358e-04 -3.70878261e-05 0. 0. 0. 0. 0. 0. -8.83856381e-04
      -1.11947639e-03 -5.62590605e-04 -1.04866340e-03 -4.16967261e-04
      7.92083389e-04 9.93115711e-04 3.45309265e-04 2.14328020e-06
      -1.14443025e-03 -7.39861687e-04 -4.71151783e-04 0. 0. 0. 0. 0. 0.
      0. -1.54005829e-04 -1.19312922e-03 -1.00255839e-03 -1.09238829e-03
      -5.45427436e-04 -1.99247571e-03 -1.20760966e-03 5.15893858e-04
      -1.75163135e-04 -2.83534784e-04 -2.00493447e-03 -4.76931455e-04
      -1.21790986e-03 -4.34063957e-04 -4.34063957e-04 0. 0. 0. 0. 0.
      -1.91093655e-04 -8.67598457e-04 -1.28630176e-03 -5.33638406e-04
      -4.16738883e-04 2.82010471e-04 -9.68009117e-05 -1.42645743e-03
      -4.93669868e-05 -5.51080098e-04 1.45582552e-03 1.06325070e-03
      -1.58663944e-03 -5.35965199e-04 1.66808662e-04 0. 0. 0. 0. 0.
      -1.54005829e-04 -6.03152381e-04 2.30310921e-04 -9.61354875e-04
      -1.44331844e-03 -1.38285616e-03 -2.28588033e-04 -2.11931780e-04
      -3.67602828e-04 -2.11104343e-04 -4.22737357e-04 -1.62040303e-03
      -7.71459425e-04 1.66986341e-04 6.26267632e-04 0. 0. 0. 0. 0.
      -1.54005829e-04 2.74229769e-05 1.32006861e-03 -3.38735641e-04
      7.12942681e-04 -1.36566276e-04 -7.53867847e-04 6.42498722e-04
      1.10588956e-03 -1.41518866e-03 -1.62092282e-03 -8.29703524e-04
      5.29234276e-05 -1.07029387e-04 4.59458970e-04 7.28168874e-04 0. 0.
      0. 0. 0. -6.55978511e-04 3.15999787e-04 8.32959951e-04
      -6.56934164e-04 -9.16384161e-04 -1.19447976e-03 -8.57873878e-04
      -1.71653974e-05 -1.89863116e-04 -4.01600992e-04 -8.50116892e-04
      -2.12427567e-05 -8.09980906e-04 0. 0. 0. 0. 0. 0. 0.
      4.54814581e-04 -3.30259500e-04 -1.55972259e-04 3.98280041e-04
      3.98280041e-04 5.30236721e-05 -1.03276619e-03 -1.33336114e-03
      -1.93289943e-05 -8.28874123e-04 -8.28874123e-04 -1.21393055e-03 0.
      0. 0. 0. 0. 0. 0. 0. 0. 0. 0. 0. 0. 3.00594897e-04 0. 0. 0. 0. 0.
      0. 0. 0. 0. 0. 0. 0. 0. 0. 0. 0. 0. 0. 0. 0. 0. 0. 0. 0. 0. 0. 0.
      0. 0. 0.</_>
    <_>
      0. 0. 0. 0. 0. 0. 0. 0. 0. 0. 0. 0. 0. 0. 0. 0. 0. 0. 0. 0. 0. 0.
      0. 0. 0. 0. 0. 0. 0. 0. 0. 0. 0. 0. 0. 0. 0. 0. 0. 0. 0. 0. 0. 0.
      0. 0. 0. -1.99327071e-04 -1.99327071e-04 1.10871151e-04
      -4.54243331e-04 4.85539407e-04 -4.86938778e-04 0. 0. 0. 0. 0. 0.
      0. 0. 0. 0. 0. 0. 1.10525965e-04 1.47749990e-04 -1.21328128e-04
      -5.10117097e-04 -3.12170130e-04 -6.98161602e-04 -4.01268888e-04
      -7.01671059e-04 9.69316345e-04 6.15264697e-04 1.16254538e-04
      2.97695340e-04 1.16254538e-04 0. 0. 0. 0. 0. -1.07590233e-04
      -3.47344030e-04 -6.12217536e-06 1.00873054e-04 -7.78356683e-04
      -1.81730953e-03 -7.22990721e-04 -9.06252884e-04 2.04180134e-04
      -1.78192073e-04 1.25505670e-04 1.12891104e-03 3.11733311e-04
      2.97695340e-04 0. 0. 0. 0. 0. -1.08438777e-04 -3.45213921e-04
      -6.41508086e-04 3.30400246e-04 -6.57066994e-04 -4.50886349e-04
      -5.21539107e-07 -5.59796055e-04 -1.20943319e-03 -1.76050453e-05
      -1.02209183e-03 5.08149969e-04 8.51058649e-05 3.38467042e-04
      -3.55359807e-04 0. 0. 0. 0. 0. -9.37092627e-05 -6.26946392e-04
      -6.26946392e-04 -3.26851179e-04 -9.07709298e-04 -1.12463909e-04
      1.24980224e-05 7.67427846e-04 1.61696738e-03 -4.61025396e-04
      -9.54290212e-04 3.77840741e-04 4.50615698e-05 -4.65494930e-04
      -3.73878021e-04 0. 0. 0. 0. 0. -3.90171248e-04 -3.90171248e-04
      2.99927371e-04 -5.19022287e-04 2.40047724e-04 -9.95805749e-06
      9.43585124e-04 1.04726979e-03 1.95850292e-03 -4.73128719e-04
      -3.77251097e-04 -8.67862313e-04 -1.02260360e-03 -7.10027700e-04
      -2.36002234e-05 0. 0. 0. 0. 0. 0. 0. 5.96389349e-04 8.30893288e-04
      1.92461928e-04 -4.68066311e-04 -2.49385484e-04 2.34626554e-04
      4.73154796e-04 6.89548091e-04 -2.11558508e-04 -8.89440882e-04
      -3.59749887e-04 0. 0. 0. 0. 0. 0. 0. 0. 0. 6.29885064e-04
      1.83992335e-04 2.52341590e-04 -7.83150841e-04 -1.07959413e-03
      3.11102835e-04 8.77474842e-04 1.43664249e-03 -2.34110790e-04
      -1.23328727e-03 -6.89764740e-04 0. 0. 0. 0. 0. 0. 0. 0. 0. 0. 0.
      -3.75782372e-04 -1.51096156e-03 -1.84621444e-04 -1.26002764e-03
      1.22820877e-03 -1.64760175e-04 1.19977150e-04 -1.13761087e-03
      -7.83474010e-04 -1.07590233e-04 0. 0. 0. 0. 0. 0. 0.
      -2.36002234e-05 0. 3.68749083e-04 1.14935305e-04 -4.38393618e-04
      -6.22106541e-04 1.36446452e-03 3.07563605e-04 -5.42278751e-04
      -2.11304097e-04 -1.13913254e-03 -1.08078448e-03 -2.01299496e-04 0.
      0. 0. 0. 0. 0. 0. -2.36002234e-05 2.08487894e-04 3.68749083e-04
      5.01842354e-04 5.78425825e-04 1.37061451e-03 2.18049577e-03
      2.07348610e-03 -6.36786164e-04 -1.05759513e-03 -8.80212407e-04
      -8.39832705e-04 -4.98610025e-04 -1.07590233e-04 0. 0. 0. 0. 0.
      -3.36149649e-04 -3.59749887e-04 -9.58660909e-04 -1.07994594e-03
      -1.31894636e-03 -2.47854368e-05 -6.69724977e-05 8.88894720e-04
      -1.18945951e-04 -2.06059223e-04 1.59491872e-04 -2.25164922e-06
      3.20529973e-04 -2.08073310e-04 -9.14251723e-05 2.98746076e-04 0.
      0. 0. 0. -3.36149649e-04 -3.59749887e-04 -1.04656559e-03
      -3.39930557e-04 -1.14512269e-03 -4.47547529e-04 6.63099054e-04
      5.22819289e-04 -1.95979927e-04 6.87861233e-04 -1.76999791e-04
      1.67320031e-04 -5.31841797e-05 2.59131135e-04 8.95135454e-04
      8.95135454e-04 0. 0. 0. 0. 0. -3.89312248e-04 -4.45553014e-04
      4.03171434e-04 3.04441404e-04 -4.27797670e-04 -8.18836503e-04
      -7.17969844e-04 5.03862218e-04 -1.36606535e-03 -2.00638824e-04
      1.07284766e-04 5.07861783e-04 5.66471834e-04 3.59614205e-04
      5.96389349e-04 5.96389349e-04 0. 0. 0. -5.31625810e-05
      -5.31625810e-05 1.39272612e-04 4.72352491e-04 -7.33702153e-04
      -1.63181481e-04 -5.10161510e-04 9.97362895e-06 -9.66796360e-04
      3.31953546e-04 9.96579183e-04 -1.60213167e-04 3.00795131e-04
      -1.89292710e-04 -2.36775144e-04 0. 0. 0. 0. 0. 0. -3.50277784e-04
      -8.28300472e-05 -8.09831079e-04 -7.15933507e-04 -5.81385044e-04
      -9.01477062e-04 -1.72975578e-03 -1.68442284e-03 1.14572853e-04
      1.58007624e-05 -3.60558537e-04 -4.23561636e-04 -2.36775144e-04
      -2.36775144e-04 0. 0. 0. 0. 0. 0. 0. 0. 0. 0. 0. -3.91077920e-04
      -1.09331100e-03 0. 0. 0. -5.24859934e-04 -2.36775144e-04
      -2.36775144e-04 0. 0. 0. 0. 0. 0. 0. 0. 0. 0. 0. 0. 0. 0. 0. 0. 0.
      0. 0. 0. 0. 0. 0. 0.</_>
    <_>
      0. 0. 0. 0. 0. 0. 0. 0. 0. 0. 0. 0. 0. 0. 0. 0. 0. 0. 0. 0. 0. 0.
      0. 0. 0. 0. 0. 0. 0. 0. 0. 0. 0. 0. 0. 0. 0. 0. 0. 0. 0. 0. 0. 0.
      0. 0. 0. 0. 0. 0. 1.93933258e-04 1.98158188e-04 0. 9.44438798e-05
      9.44438798e-05 -6.96254137e-05 0. 0. 0. 0. 0. 0. 0. 0. 0.
      6.23610627e-04 2.68689007e-04 -1.48197883e-04 3.63108338e-05
      2.21121751e-04 -2.27248354e-04 7.93318555e-04 -2.97746756e-05
      3.45426524e-04 -2.06170545e-04 1.64833054e-05 1.88739403e-04 0. 0.
      0. 0. 0. 0. 0. 4.99107817e-04 5.41389687e-04 3.86128726e-04
      7.65288831e-04 4.24705067e-04 4.88936726e-04 5.89275616e-04
      7.57639937e-04 -6.48233283e-04 5.53525344e-04 -1.89163446e-04
      -4.22275225e-05 4.05415121e-05 0. 0. 0. 0. 0. 0. 0. 0.
      4.52703738e-04 2.72620411e-04 -3.73817093e-05 3.34316828e-05
      5.17081935e-04 4.60511976e-04 -1.62672470e-04 -1.80517542e-04
      8.09560588e-04 -2.20992166e-04 -1.34010494e-04 4.05415121e-05 0.
      0. 0. 0. 0. 0. 0. -1.48197883e-04 -4.68816637e-04 1.34390473e-04
      -6.42574450e-04 -5.62225141e-05 -7.47482700e-04 -1.26757703e-04
      -4.98769696e-05 1.16050499e-03 3.65996792e-04 1.22276630e-04
      -5.83045439e-05 -1.48197883e-04 0. 0. 0. 0. 0. 0. 0.
      -3.64855368e-05 -4.72079701e-04 -4.76624642e-04 -4.09006781e-04
      -3.07328184e-04 3.31276038e-04 1.01866713e-03 1.65141333e-04
      5.04427822e-04 2.40384070e-05 -7.27959050e-05 -2.37481872e-04
      -1.48197883e-04 0. 0. 0. 0. 0. 0. -1.48197883e-04 -3.64855368e-05
      -1.25723614e-04 -4.37462470e-04 -7.81134877e-04 -4.99082322e-04
      1.39407333e-04 6.00577972e-04 3.42272891e-04 -5.46354859e-04
      4.38805408e-04 -4.95767279e-04 -2.30418795e-04 -1.48197883e-04 0.
      0. 0. 0. 0. 0. -1.48197883e-04 -8.22209040e-05 -1.02660539e-04
      -1.06720382e-03 -1.87606807e-03 -9.80426441e-04 4.78648464e-04
      3.40025057e-04 -7.54438952e-05 -8.52256489e-04 -3.57048062e-04
      -5.09614532e-04 -1.48197883e-04 -1.83898112e-04 -3.57002173e-05 0.
      0. 0. 0. 0. -1.48197883e-04 -3.24220251e-04 -3.31529940e-04
      -7.07928033e-04 -8.17495340e-04 -2.12227181e-03 4.57444869e-04
      3.91966692e-04 -1.82031145e-04 -1.07737153e-03 -7.14616908e-04
      -3.46262910e-04 -3.54876276e-04 -1.83898112e-04 -3.57002173e-05 0.
      0. 0. 0. 0. -1.48197883e-04 -4.52984328e-04 1.16431547e-04
      -3.35247663e-04 -9.35927848e-04 -5.10498823e-04 -4.21523655e-05
      -1.36542931e-05 -6.53408293e-04 -8.42805370e-04 -5.31498285e-04
      -2.76961946e-04 -1.83898112e-04 -5.02135896e-04 0. 0. 0. 0. 0. 0.
      -9.30638416e-05 1.12217058e-04 1.72280401e-04 9.60776160e-05
      -6.53234660e-04 -1.36192524e-04 -7.44313293e-04 8.28438351e-06
      -8.40133114e-04 -6.93926297e-04 -5.66797738e-04 -7.31184846e-04
      -2.41261732e-04 -9.30638416e-05 0. 0. 0. 0. 0. 0. -1.62689248e-04
      -1.62689248e-04 -6.18757404e-05 1.21408113e-04 4.79812559e-04
      -7.12373469e-04 2.92346900e-04 4.36154485e-04 3.97911208e-05
      2.77042738e-04 2.56692700e-04 -3.29531351e-04 -2.41261732e-04
      -9.30638416e-05 0. 0. 0. 0. 0. 0. 0. 1.22971076e-04 5.09868667e-04
      6.00917439e-04 1.15980057e-03 -2.34039966e-04 1.03168096e-03
      6.77149685e-04 -3.66252847e-04 3.79668665e-04 6.33107498e-04
      6.49937487e-04 4.57353672e-05 1.93933258e-04 1.93933258e-04 0. 0.
      0. 0. 0. 0. 1.92596490e-04 5.85661037e-04 5.05339471e-04
      6.63544517e-04 -5.06821125e-05 4.13382542e-04 1.34607567e-03
      4.78317728e-04 1.81510477e-04 3.28611350e-04 5.76282153e-04
      5.44843148e-04 1.93933258e-04 1.93933258e-04 1.93933258e-04 0. 0.
      0. 0. 0. 1.88739403e-04 4.09779139e-04 3.44670669e-04
      9.57317316e-05 3.51039809e-04 2.18919449e-04 1.59610412e-04
      2.85876857e-04 3.84611107e-04 3.53054958e-04 3.93191818e-04
      3.50909919e-04 0. 0. 0. 0. 0. 0. 0. 0. 1.88739403e-04
      6.16696298e-06 2.68189644e-04 8.88117720e-05 3.69236775e-04
      -2.64135713e-04 -1.87666534e-04 -5.50027937e-04 1.66512880e-04
      2.51190824e-04 1.21239747e-04 0. 0. 0. 0. 0. 0. 0. 0. 0. 0. 0.
      4.23062971e-04 5.94041136e-04 0. -7.92408537e-04 -1.07537128e-03
      0. 0. 0. 0. 0. 0. 0. 0. 0. 0. 0. 0. 0. 0. 0. 0. 0. 0. 0. 0. 0. 0.
      0. 0. 0. 0. 0. 0. 0.</_>
    <_>
      0. 0. 0. 0. 0. 0. 0. 0. 0. 0. 0. 0. 0. 0. 0. 0. 0. 0. 0. 0. 0. 0.
      0. 0. 0. 0. 0. 0. 0. 0. 0. 0. 0. 0. 0. 0. 0. 0. 0. 0. 0. 0. 0. 0.
      0. 0. 0. 0. 0. 9.37373843e-05 2.13123494e-04 4.64782963e-04
      1.25791921e-04 0. 0. 0. 0. 0. 0. 0. 0. 0. 0. 0. 0. 5.06153214e-04
      3.03481094e-04 -1.06250787e-04 2.62564892e-04 -2.40236448e-04
      -9.99659416e-04 -1.27455303e-06 3.44742468e-04 -3.76126336e-05
      1.71354506e-04 -7.01813668e-04 -1.37569121e-04 -2.28577192e-04 0.
      0. 0. 0. 0. 0. 2.14679676e-04 3.34067387e-04 3.78361030e-04
      5.58207175e-05 -6.95528521e-04 1.99476170e-04 -1.93172993e-04
      -1.82931297e-04 -4.06622246e-04 -1.82320611e-04 -5.88956056e-04
      -3.69380723e-04 -3.35455377e-04 -5.24917908e-04 0. 0. 0. 0. 0. 0.
      -1.72085871e-04 5.71992190e-04 -1.76039917e-04 2.21656228e-04
      -2.07322417e-04 1.53474670e-04 1.83137294e-04 2.37606728e-05
      -4.56552458e-04 1.69341991e-04 3.97961185e-06 -1.02691876e-04
      -1.24068826e-03 -3.58857447e-04 -3.38283571e-04 0. 0. 0. 0. 0.
      -1.14530638e-04 -2.83030211e-04 1.97724221e-05 4.32399160e-04
      5.08267491e-04 -1.77946757e-04 -4.11907195e-06 -6.09026165e-06
      -2.70690449e-04 -5.17660868e-04 -4.88581252e-04 -9.83222853e-04
      -1.19387382e-03 -9.06986359e-04 -5.20247442e-04 0. 0. 0. 0.
      -1.12507681e-04 -2.62161862e-04 -3.41255713e-04 -1.73607434e-04
      -5.94489742e-04 1.00704463e-04 -2.06301102e-05 2.59832916e-04
      1.22409791e-03 1.05338672e-03 -5.29199360e-06 -5.30982099e-04
      -4.35150345e-04 -4.14142734e-04 -3.54352698e-04 -2.46865151e-04 0.
      0. 0. 0. -1.12507681e-04 -1.10944347e-04 6.71793940e-04
      5.53461898e-04 -7.92164996e-04 -6.77454169e-04 -3.48846224e-04
      9.45137057e-04 3.50630464e-04 6.74523762e-04 4.25983861e-04
      -3.19355779e-04 -3.19355779e-04 -3.17332830e-04 0. 0. 0. 0. 0. 0.
      -1.12507681e-04 7.36893417e-05 2.11633669e-04 -1.39893862e-04
      -1.10660284e-03 -1.01453578e-03 6.77067001e-05 1.17312919e-03
      1.14908710e-03 5.89048374e-04 -6.59517478e-04 -2.25554308e-04
      -2.04012875e-04 -2.02295496e-06 0. 0. 0. 0. 0. 0. -1.12507681e-04
      -5.69409982e-04 -5.98922838e-04 -1.08399394e-03 -1.37919490e-03
      -3.28309892e-04 1.93912652e-04 1.34322012e-03 4.21025528e-04
      -2.34623993e-04 -4.85101133e-04 -4.57527582e-04 -3.04281217e-04
      -1.55086644e-04 -2.02295496e-06 0. 0. 0. 0. 0. -2.01989911e-04
      -2.22563773e-04 -3.86434665e-04 -3.33387870e-04 -6.87980384e-04
      4.24241152e-04 8.51848861e-04 3.77474731e-04 9.03708205e-05
      -7.60994677e-04 -7.67397112e-04 -5.70035249e-04 -4.26036218e-04
      -1.55086644e-04 -1.33545211e-04 0. 0. 0. 0. 0. -1.31522247e-04
      -6.52515679e-04 -6.56324206e-04 -2.52150261e-04 -4.64102573e-04
      4.25943435e-04 6.79083692e-04 -1.49341009e-04 -3.25514266e-04
      -9.63534345e-04 -3.76657932e-04 -3.04434303e-04 -4.28059167e-04
      -4.18811833e-04 -1.33545211e-04 0. 0. 0. 0. -1.40769582e-04
      -1.53063695e-04 -7.85353186e-04 -8.20588728e-04 -3.01257998e-04
      4.51909174e-04 4.76946007e-04 1.08575169e-03 2.39574423e-04
      -1.54424488e-04 -7.88680452e-04 -2.04052471e-04 3.72100272e-04
      -5.48607204e-04 -2.35751781e-04 1.83060052e-04 0. 0. 0.
      -1.40769582e-04 -1.40769582e-04 -1.62311015e-04 -6.55997312e-04
      -1.78891188e-03 -3.72132083e-04 6.51208829e-05 1.19170501e-04
      5.65752998e-05 9.60094272e-04 -3.18532839e-04 3.26728914e-04
      6.97976793e-04 2.81809305e-04 -5.74051446e-05 1.14849900e-04
      4.20984899e-04 0. 0. 0. 0. 0. -1.40769582e-04 2.37763452e-04
      -7.49256433e-05 -2.41885034e-04 -6.60673308e-04 -1.10530376e-03
      -2.58522923e-04 -1.14233510e-04 5.48392301e-04 -6.19284692e-05
      1.64042329e-04 3.09031981e-04 1.46469509e-04 -4.66687234e-05
      6.58389617e-05 2.37924833e-04 0. 0. 0. 0. 0. 1.90077146e-04
      3.44212021e-04 -7.98051129e-04 -9.81445890e-04 -1.01084076e-03
      -9.67590720e-04 3.85236490e-04 -1.43584621e-04 -1.83414268e-05
      -1.59163654e-04 2.21559691e-04 -6.99138764e-05 -1.72085871e-04 0.
      0. 0. 0. 0. 0. 0. 0. -2.30429243e-04 -6.70687659e-05
      -1.87942627e-04 -4.81298513e-04 -5.37737680e-04 1.10394583e-04
      -8.25934985e-04 1.47963583e-04 1.15196439e-04 1.78965885e-04
      -1.12507681e-04 0. 0. 0. 0. 0. 0. 0. 0. 0. 0. 4.48126739e-05
      -7.52930237e-06 -5.23419767e-05 -2.86680501e-04 -2.34338542e-04
      -5.01465693e-04 -7.89253027e-05 0. 0. 0. 0. 0. 0. 0. 0. 0. 0. 0.
      0. 0. 0. 0. 0. 0. 0. 0. 0. 0. 0. 0. 0. 0. 0. 0.</_>
    <_>
      0. 0. 0. 0. 0. 0. 0. 0. 0. 0. 0. 0. 0. 0. 0. 0. 0. 0. 0. 0. 0. 0.
      0. 0. 0. 0. 0. 0. 0. 0. -3.86735555e-05 -5.55491388e-05
      -1.27649080e-04 0. 0. 0. 0. 0. 0. 0. 0. 0. 0. 0. 0. 0.
      -5.26809599e-05 -2.51739490e-04 -2.07850244e-05 -9.51550246e-05
      -2.54506973e-04 -1.86707461e-04 -5.76358929e-04 -5.37028303e-04
      -1.07482287e-04 0. 0. 0. 0. 0. 0. 0. 0. 0. 0. 3.29561532e-04
      -1.60282325e-05 -2.72524514e-04 1.35327529e-04 1.07063730e-04
      1.61222109e-04 5.80316191e-05 -3.75924545e-04 -5.48402080e-04
      -4.41682292e-04 -3.63666506e-04 2.50044890e-04 1.89068232e-05 0.
      0. 0. 0. 0. 0. 3.66527274e-05 3.29561532e-04 5.70370248e-05
      -1.22400597e-04 4.11028916e-04 1.83945318e-04 -8.89388539e-05
      8.50917655e-04 1.03349557e-04 5.73090045e-04 4.85262251e-04
      1.43585703e-05 -9.39576494e-05 -3.44002532e-04 -3.44002532e-04
      -3.44002532e-04 0. 0. 0. 0. 0. 4.56551497e-04 -1.06403342e-04
      4.09820204e-04 -1.23606616e-04 4.09883680e-04 1.14495080e-04
      1.79311130e-04 -1.47258515e-05 7.93771178e-04 3.96614720e-04
      -5.47229462e-08 -1.09648958e-04 -3.44002532e-04 -3.44002532e-04 0.
      0. 0. 0. 0. 0. 3.79195844e-05 3.20250256e-05 4.08658467e-04
      5.92800614e-04 5.69536933e-04 3.28929076e-04 5.91759162e-04
      -3.82233593e-05 2.97505787e-04 -2.16315006e-04 1.50790584e-04
      -2.48842935e-05 0. 0. 0. 0. 0. 0. 0. 3.79195844e-05 2.13797512e-06
      -2.61450245e-04 -1.39764175e-04 7.88297039e-05 3.20196523e-05
      1.52518725e-04 1.64545479e-03 1.58356898e-03 1.97146102e-04
      -9.22672989e-05 -3.42312182e-04 -1.04501632e-04 0. 0. 0. 0. 0. 0.
      0. 7.78795220e-06 6.18482591e-05 -2.60114641e-04 -2.61352980e-04
      3.89860361e-04 -6.98651944e-04 7.10741850e-04 8.25751747e-04
      3.62448656e-04 3.58017714e-04 -3.18857987e-04 -3.53315903e-04
      -2.67037976e-04 -8.28125922e-05 0. 0. 0. 0. 0. -1.19201999e-04
      -1.39987023e-04 -2.81608154e-05 -2.60114641e-04 -1.00765971e-03
      -5.13399020e-04 -3.63372441e-04 3.23271786e-04 1.61788674e-04
      -5.68194519e-05 -3.79560544e-04 -1.52625013e-04 -3.19758285e-04
      -1.98317954e-04 -1.92667983e-04 0. 0. 0. 0. 0. -1.19201999e-04
      -2.26417760e-04 -1.75935784e-04 -4.86877077e-04 -1.36790413e-03
      -8.17080843e-04 -1.15424373e-04 -7.07962818e-06 1.89936472e-04
      -1.68579245e-05 -2.77916988e-04 -6.40794926e-04 -2.38002700e-04
      -2.96041981e-04 -1.62536351e-04 -7.34659843e-05 0. 0. 0. 0.
      -1.19201999e-04 -2.20767790e-04 -1.53030356e-04 -4.86877077e-04
      -5.62121044e-04 -1.06559158e-03 5.13040286e-04 -8.99223087e-05
      -3.44812986e-04 -6.67118817e-04 -1.05281617e-03 -6.12695119e-04
      -2.68134318e-04 -3.99041310e-04 -1.62536351e-04 -2.07850244e-05 0.
      0. 0. 0. -2.80998083e-05 -1.99982765e-04 -3.79299046e-04
      -6.40016107e-04 -1.36384077e-03 -1.25072116e-03 2.22272338e-05
      4.36758302e-04 -6.24942768e-04 -8.52692698e-04 -7.21503806e-04
      -6.65632891e-04 -4.44855890e-04 -1.69851133e-04 -7.34659843e-05
      -2.07850244e-05 0. 0. 0. 0. -2.80998083e-05 -2.80998083e-05
      -1.02721438e-04 -2.62146641e-04 -1.18647621e-03 -8.69718788e-04
      1.36700066e-04 1.68184662e-04 -3.73776100e-04 -7.67706661e-04
      -2.16081724e-04 8.57483485e-07 -2.79839296e-04 -4.88848309e-05
      -2.07850244e-05 0. 0. 0. 0. 0. 0. 9.06874120e-05 4.65782097e-04
      -3.28227674e-04 -6.73048315e-04 -1.52757231e-04 -3.92835384e-04
      -2.17534471e-04 -6.51270559e-04 -5.69562602e-04 -2.65785580e-04
      -1.49091909e-04 9.88901447e-05 1.26989951e-04 1.47774976e-04 0. 0.
      0. 0. 0. 0. 1.37694049e-04 5.74568330e-05 -3.92044167e-05
      4.47756669e-04 -4.87123674e-04 -6.90135348e-04 -1.49774007e-06
      -5.81396918e-04 -3.51089751e-04 1.54342953e-04 1.65560297e-04
      1.84427699e-04 1.47774976e-04 1.47774976e-04 1.47774976e-04 0. 0.
      0. 0. 0. 2.78144696e-04 2.96499697e-04 -4.37142793e-04
      2.04654527e-04 4.79936338e-04 -8.58504864e-05 -5.76605904e-04
      3.44738946e-04 3.53169133e-04 6.66701599e-05 3.29561532e-04
      3.66527274e-05 0. 0. 0. 0. 0. 0. 0. 0. 2.59237859e-04
      1.83550201e-05 0. 0. 0. 0. 2.54036040e-05 1.97258021e-04
      3.49964772e-04 2.92908808e-04 2.92908808e-04 0. 0. 0. 0. 0. 0. 0.
      0. 0. 0. 0. 0. 0. 0. 0. 0. 0. 0. 0. 0. 0. 0. 0. 0. 0. 0. 0. 0. 0.
      0. 0. 0. 0. 0. 0. 0. 0. 0. 0. 0. 0. 0. 0. 0. 0.</_>
    <_>
      0. 0. 0. 0. 0. 0. 0. 0. 0. 0. 0. 0. 0. 0. 0. 0. 0. 0. 0. 0. 0. 0.
      0. 0. 0. 0. 0. 0. 0. 0. 0. 0. 0. 0. 0. 0. 0. 0. 0. 0. 0. 0. 0. 0.
      0. 0. 0. 0. 0. 0. 4.57996270e-04 1.56945709e-04 0. 0. 0. 0. 0. 0.
      0. 0. 0. 0. 0. 0. 0. 2.40162146e-04 1.70111030e-04 0.
      -1.16054121e-04 3.41942156e-04 -6.58295585e-06 2.00504274e-03
      6.29797229e-04 4.62394586e-04 4.62394586e-04 0. 3.75005708e-04 0.
      0. 0. 0. 0. 0. 0. 1.70111030e-04 -2.87294184e-04 -2.87294184e-04
      -9.74743860e-04 -1.34932657e-03 -7.96521315e-04 -4.74870139e-05
      -1.02370523e-03 -6.72131602e-04 1.00081577e-03 1.74290477e-03
      -1.35829789e-04 -3.85899359e-04 0. 0. 0. 0. 0. -1.72540764e-04
      -1.72626271e-04 -6.53654162e-04 -1.18521675e-04 -1.21599576e-03
      -2.17391993e-03 -1.21197652e-03 -4.87826532e-04 -1.17393350e-03
      -5.10692826e-06 -6.16904115e-04 8.63058449e-05 -2.71435681e-04
      5.41980553e-05 3.75005708e-04 0. 0. 0. 0. 0. 0. -3.91676062e-04
      -8.72789475e-04 -9.12419753e-04 -6.52640883e-04 -2.59596086e-03
      -1.69208867e-03 8.25367024e-05 -7.52314168e-04 -1.26565411e-03
      -1.04704348e-03 -6.33935269e-04 -6.16415287e-04 -1.56483929e-05
      -1.18287346e-04 0. 0. 0. 0. 0. -8.43437374e-05 -6.31508650e-04
      7.94951920e-05 -2.65318522e-04 -1.28184643e-03 -3.31628515e-04
      4.22720012e-04 -5.07548044e-04 6.03750814e-04 -2.72082980e-04
      -1.14721700e-03 -1.21350423e-03 -1.59145461e-03 -5.17887762e-04
      -3.23003216e-04 0. 0. 0. 0. 0. -2.83486268e-04 -6.04925794e-04
      6.45026448e-05 -5.40568319e-04 -2.82522029e-04 -7.86237768e-04
      -3.21500644e-04 6.61808997e-04 1.29788870e-03 3.05875787e-04
      -5.68339950e-04 -7.48167047e-04 -7.60568888e-04 -3.95057315e-04
      -3.95057315e-04 0. 0. 0. 0. -2.11432154e-04 -2.83486268e-04
      -2.19130292e-04 2.43264294e-04 -1.87417943e-04 -2.39208239e-04
      -7.45242753e-04 5.76186692e-04 3.34488286e-04 1.53689005e-03
      2.89001211e-04 3.18138278e-04 4.95613494e-06 -4.30562446e-04
      -3.95057315e-04 -2.34884836e-04 0. 0. 0. 0. 0. 0. -1.16597497e-04
      -1.74237182e-04 -2.47981137e-04 -6.20694715e-04 -1.07869098e-03
      5.40159126e-05 1.07141165e-03 8.89055198e-04 9.32156036e-05
      2.34204970e-04 -7.37424358e-04 -3.95057315e-04 -1.12548366e-03 0.
      0. 0. 0. 0. 0. 0. -2.92524521e-04 -2.92524521e-04 -1.75927024e-04
      -8.45571412e-05 -8.56803556e-04 3.34573677e-04 -4.00144811e-04
      5.65312221e-04 -1.47919054e-04 -2.30183767e-04 -5.14286919e-04
      -6.26482244e-04 -9.92329908e-04 -2.19135283e-04 0. 0. 0. 0. 0. 0.
      -2.92524521e-04 -1.75927024e-04 -3.48467787e-04 -1.72540764e-04
      -3.36574652e-04 1.01788639e-04 -4.26492217e-04 -2.26242424e-04
      -7.61460746e-04 1.44861464e-04 -7.76407687e-05 -4.65426594e-04
      -2.19135283e-04 -2.19135283e-04 0. 0. 0. 0. 0. 0. -1.18287346e-04
      0. 0. 5.92336932e-04 4.85714059e-04 -3.36562749e-04 5.60816785e-04
      -2.53348640e-04 7.54864421e-04 9.11451585e-04 -2.65580980e-04
      -1.41164492e-04 -7.56106456e-04 -3.64430423e-04 -3.64430423e-04 0.
      0. 0. 0. 0. 0. 0. 1.67520979e-04 -3.79185280e-04 8.92707030e-04
      -1.48736406e-04 1.06295722e-03 2.46087962e-04 4.81363997e-04
      2.47946271e-04 6.63930026e-04 2.48081808e-04 9.35658536e-05
      4.57996270e-04 4.57996270e-04 0. 0. 0. 0. 0. 0. 8.52266559e-04
      5.74021542e-04 -2.45608157e-04 1.51581375e-03 2.03142947e-04
      -2.10195707e-04 1.06271612e-03 1.24145602e-03 2.97406281e-04
      6.98158401e-04 6.98158401e-04 6.28107286e-04 4.57996270e-04
      4.57996270e-04 4.57996270e-04 0. 0. 0. 0. 0. 7.64877710e-04
      2.90694035e-04 2.56729894e-04 1.20839081e-03 1.70857282e-04
      1.40166446e-03 6.30890776e-04 -4.68215352e-04 1.27796456e-03
      3.34148615e-04 2.40162146e-04 1.70111030e-04 0. 0. 0. 0. 0. 0. 0.
      0. 7.64877710e-04 -1.11989467e-03 -8.62188463e-05 5.07599849e-04
      -8.16443004e-04 4.99908347e-05 -9.54112795e-04 -3.44666041e-04
      -9.57949087e-05 1.63952107e-04 7.00511227e-05 0. 0. 0. 0. 0. 0. 0.
      0. 0. 0. -2.44370953e-04 2.75521132e-04 -1.11725810e-03
      -2.19834410e-03 7.19805248e-04 -5.18965244e-04 -7.24582525e-04
      -8.54990461e-08 -8.54990461e-08 0. 0. 0. 0. 0. 0. 0. 0. 0. 0. 0.
      0. 0. 0. 0. -1.65612422e-04 0. 0. 0. 0. 0. 0. 0. 0. 0. 0.</_>
    <_>
      0. 0. 0. 0. 0. 0. 0. 0. 0. 0. 0. 0. 0. 0. 0. 0. 0. 0. 0. 0. 0. 0.
      0. 0. 0. 0. 0. 0. 0. 0. 0. 0. 0. 0. 0. 0. 0. 0. 0. 0. 0. 0. 0. 0.
      0. 0. 0. -9.75801027e-04 -9.75801027e-04 -5.91114745e-04
      1.52513152e-03 -6.94224378e-04 -6.34373573e-05 0. 0. 0. 0. 0. 0.
      0. 0. 0. 0. 0. 0. 1.12917111e-03 -3.80243495e-04 -7.15122034e-04
      -1.09143287e-03 -3.53428681e-04 -1.43489207e-03 -1.03972177e-03
      -6.39899808e-04 -3.91739828e-04 -3.36740399e-04 -5.04695054e-04
      9.09818162e-04 0. 0. 0. 0. 0. 0. 0. 5.04277297e-04 4.19571952e-05
      -7.96156892e-05 -7.71413383e-04 -5.83937508e-04 -6.49807567e-04
      -1.93657132e-03 -2.29222467e-03 -1.10750960e-03 -9.23120591e-04
      -5.68401301e-04 -2.58676737e-04 2.38647612e-04 -1.82162752e-04
      -6.33556647e-06 0. 0. 0. 0. 0. 0. 2.75958737e-04 -6.98748219e-04
      -1.75513164e-03 -8.08241253e-04 -1.54255552e-03 7.15238042e-04
      -6.91161549e-04 4.28813684e-04 3.81784688e-04 9.22406616e-04
      2.17698849e-04 -3.03266483e-04 -7.04431674e-04 0. 0. 0. 0. 0. 0.
      -3.42840620e-04 3.15414627e-06 1.13112670e-04 8.84565117e-04
      -1.40093602e-04 9.95299895e-04 1.02734042e-03 2.50488543e-03
      2.87440289e-05 -2.35443190e-03 -5.26495220e-04 -7.72920670e-04
      -1.10215112e-03 -1.71315961e-03 0. 0. 0. 0. 0. -2.31427737e-04
      2.96560203e-04 -3.47309367e-04 4.28756874e-04 -2.07711570e-03
      -1.91733066e-03 -1.97760251e-04 6.59436861e-04 9.01294814e-04
      -5.44612471e-04 -1.86232879e-04 -2.02043424e-03 -1.44912163e-03
      -3.97719472e-04 -8.46316572e-04 -8.46316572e-04 0. 0. 0. 0.
      -2.31427737e-04 2.96560203e-04 7.17661460e-04 1.10325380e-03
      -1.83186447e-03 -1.05968688e-03 -3.91190551e-04 1.26542500e-03
      1.98997717e-04 5.02870651e-04 -1.62316705e-04 -1.44278607e-03
      -1.10077509e-03 -8.46316572e-04 -8.46316572e-04 0. 0. 0. 0. 0.
      -2.31427737e-04 6.66195469e-04 5.97646576e-04 -8.60021915e-04
      -3.09989881e-03 1.66316779e-04 1.44985606e-04 1.16131996e-04
      -2.05859778e-05 -2.40176378e-04 -9.01930965e-04 -2.07103579e-03
      -8.46316572e-04 -8.46316572e-04 0. 0. 0. 0. 0. 0. 0.
      -2.31427737e-04 -2.31427737e-04 -7.23301724e-04 -3.32862744e-03
      -3.66569118e-04 6.87984750e-04 9.47163935e-05 6.42197498e-04
      1.41084485e-03 -4.05964587e-04 -1.11412883e-04 0. 0. 0. 0. 0. 0.
      0. 0. 0. 0. 0. 3.36449273e-04 -6.10944116e-04 -3.18540318e-04
      -3.11246491e-04 -7.87172467e-04 7.29659398e-04 1.55429210e-04
      -2.07900326e-03 -5.10188169e-04 -1.11412883e-04 0. 0. 0. 0. 0. 0.
      0. 0. 0. -5.02147130e-04 -1.12125836e-03 -1.34070450e-03
      -7.87639990e-04 1.27662788e-03 -4.07136795e-05 -1.77770155e-03
      -1.11662410e-03 8.52822122e-05 -9.29466623e-04 -5.10188169e-04
      -1.11412883e-04 0. 0. 0. 0. 0. 0. 0. -8.66842980e-04
      -1.23152474e-03 -1.49226317e-03 4.92534076e-04 -1.12012215e-03
      -4.87768644e-04 1.85662485e-03 1.46681123e-04 -1.48407393e-03
      -4.30672779e-04 1.52076711e-04 -1.10130291e-03 4.18456948e-05
      3.84686311e-04 0. 0. 0. 0. 0. 0. -5.85840084e-04 -1.25992612e-03
      -2.18531559e-03 7.10978347e-04 -1.42027100e-04 1.07808318e-03
      -1.17620199e-04 8.63215791e-06 3.84983228e-04 5.42032241e-04
      -1.90930674e-04 -5.87960589e-04 8.48594063e-04 1.08002184e-03 0.
      0. 0. 0. 0. 0. 4.50790045e-04 1.17490918e-03 4.30617627e-04
      -3.66930733e-04 1.78521688e-04 -1.84360822e-03 -3.81124992e-04
      -6.72704831e-04 5.93206596e-06 -1.29907721e-05 -1.82150863e-04
      -3.01022053e-04 4.63907782e-04 6.95335504e-04 6.95335504e-04 0. 0.
      0. 0. 0. 3.47445253e-04 2.79541360e-04 1.73543827e-04
      -1.66727917e-03 8.28202319e-05 -8.01119895e-04 -1.04661728e-03
      -4.23352583e-04 8.58008047e-04 -8.20111542e-04 4.24988189e-04
      9.08563816e-05 0. 0. 0. 0. 0. 0. 0. 0. 5.76417893e-04
      -7.44535646e-04 2.97441351e-04 -1.09952793e-03 -1.23553991e-03
      -2.03552051e-03 -2.00970937e-03 -1.19081431e-03 -2.76457344e-04
      2.86554714e-04 3.93466122e-04 0. 0. 0. 0. 0. 0. 0. 0. 0. 0. 0. 0.
      0. 0. 0. 0. 0. 0. 0. 0. 0. 0. 0. 0. 0. 0. 0. 0. 0. 0. 0. 0. 0. 0.
      0. 0. 0. 0. 0. 0. 0. 0. 0. 0. 0.</_>
    <_>
      0. 0. 0. 0. 0. 0. 0. 0. 0. 0. 0. 0. 0. 0. 0. 0. 0. 0. 0. 0. 0. 0.
      0. 0. 0. 0. 0. 0. 0. 0. 0. 0. 0. 0. 0. 0. 0. 0. 0. 0. 0. 0. 0. 0.
      0. 0. 0. 0. 0. 0. 5.55543404e-04 1.69669089e-04 0. 0. 0. 0. 0. 0.
      0. 0. 0. 0. 0. 0. 0. 4.07767307e-04 4.07767307e-04 0.
      -4.78029862e-04 2.23049123e-04 1.01644864e-05 7.34178058e-04
      8.06185126e-04 -3.76643846e-04 7.60736119e-04 0. 7.89640835e-05 0.
      0. 0. 0. 0. 0. 0. 4.07767307e-04 3.28960305e-04 3.28960305e-04
      5.43730275e-04 -3.51726951e-04 8.86176073e-04 -1.61707663e-04
      2.69028184e-04 -2.95183272e-04 4.55303583e-04 1.55031550e-04
      5.92258177e-04 7.89640835e-05 0. 0. 0. 0. 0. 0. 0. -7.88070174e-05
      4.92858118e-04 -1.76919290e-04 -1.02907221e-03 -8.05299904e-04
      -1.77365274e-03 -1.56740437e-03 -1.41631253e-03 -2.11128034e-03
      4.12250083e-04 -7.46394158e-04 1.07417139e-03 -1.99858812e-04 0.
      0. 0. 0. 0. 0. 0. -7.88070174e-05 -4.56267699e-05 -3.36528174e-04
      -6.24196779e-04 2.59703549e-04 -8.86782014e-04 6.93033944e-05
      -4.02359845e-04 -1.09439177e-04 -5.85976290e-04 -6.98467658e-04
      1.60897871e-05 -2.78822903e-04 -2.15948588e-04 0. 0. 0. 0. 0. 0.
      2.47076736e-04 -3.50761780e-04 -4.38020681e-04 -2.60452158e-04
      -4.49370797e-04 -4.85297875e-04 8.11057806e-04 6.58697390e-04
      -1.18089527e-04 -6.27566769e-04 -5.77634259e-04 -6.28743001e-05
      -4.13937705e-05 -2.15948588e-04 0. 0. 0. 0. 0. -1.05117360e-04
      1.34606271e-05 9.96851304e-05 3.23832792e-04 -7.68404629e-04
      -5.78832522e-04 2.12135528e-05 -1.28949396e-04 -1.68530532e-04
      -3.56978533e-04 -1.10132073e-03 -6.39677339e-04 -1.67991660e-04
      -4.13937705e-05 0. 0. 0. 0. 0. -1.05117360e-04 -1.05117360e-04
      3.74921918e-04 4.87242534e-04 -6.45007007e-04 -1.17868313e-03
      -5.48609649e-04 4.85009921e-04 6.92395959e-04 -4.24927915e-04
      -5.98141691e-04 -8.61207314e-04 -6.39677339e-04 -1.05117360e-04 0.
      0. 0. 0. 0. 0. -1.05117360e-04 -1.05117360e-04 -2.80696840e-04
      -7.10833236e-04 -1.00064895e-03 -1.00684597e-03 -2.82644993e-04
      2.10998100e-04 8.72651814e-04 1.88237464e-04 -1.02542434e-03
      -8.52104393e-04 -5.87151852e-04 -1.05117360e-04 0. 0. 0. 0. 0. 0.
      0. -1.26597894e-04 -3.85814201e-04 -2.40370628e-05 -1.02220307e-04
      -1.01832370e-03 1.16491312e-04 1.10692182e-03 3.81284190e-04
      -8.17663502e-04 -6.75091345e-04 -4.14634385e-04 -6.90213579e-04
      -1.05117360e-04 0. 0. 0. 0. 0. 0. 0. 0. 5.57478750e-04
      5.46347001e-04 -6.33039745e-04 1.25729828e-04 1.08794891e-03
      7.52004038e-04 3.11526266e-04 4.41472861e-04 -3.62115716e-05
      1.57154118e-05 -6.90213579e-04 -2.35834930e-04 0. 0. 0. 0. 0. 0.
      0. 0. 0. -3.26122827e-05 9.90919580e-05 1.02893193e-03
      -1.59158371e-04 9.59307421e-04 1.18099339e-03 6.71438582e-04
      2.10904371e-04 1.66591526e-05 1.33940994e-04 -2.35834930e-04
      -2.35834930e-04 0. 0. 0. 0. 0. 0. 0. 0. 2.48633180e-04
      3.24442546e-04 3.99083830e-04 1.25556617e-04 1.23502163e-03
      4.10478417e-04 4.85381315e-04 7.86133169e-04 6.77546312e-04
      6.11900818e-04 1.91209736e-04 3.19708488e-04 4.24825848e-04 0. 0.
      0. 0. 0. 0. 9.70771653e-04 1.21940486e-03 -5.83180336e-05
      7.25747261e-04 -8.07340257e-05 -3.70991998e-04 7.30105676e-04
      6.03512919e-04 5.55938983e-04 3.29236973e-05 7.74286920e-04
      7.29694613e-04 3.19708488e-04 4.24825848e-04 5.55543404e-04 0. 0.
      0. 0. 0. -8.69518146e-04 -3.24730616e-04 4.27760358e-04
      8.70067510e-04 2.14956657e-04 1.15087346e-06 6.39658887e-04
      2.17865148e-04 7.59803879e-06 2.16452696e-04 1.04509498e-04
      2.42124865e-04 -1.05117360e-04 0. 0. 0. 0. 0. 0. 0.
      -8.69518146e-04 -1.20582455e-03 7.59388320e-04 -3.44870234e-04
      7.66003097e-04 -3.55401135e-04 7.18452793e-05 8.35581523e-06
      -1.80190036e-04 -1.91314612e-04 -1.74759058e-04 0. 0. 0. 0. 0. 0.
      0. 0. 0. -4.13937705e-05 -2.57342355e-04 3.60040634e-04
      -6.14786113e-04 -2.14805314e-05 -1.63374911e-03 -1.06968998e-03
      -3.27863439e-04 -6.97687501e-04 -5.69394731e-04 0. 0. 0. 0. 0. 0.
      0. 0. 0. 0. 0. 0. 0. 0. 0. 0. 0. 0. 0. -9.89420951e-05 0. 0. 0. 0.
      0. 0.</_>
    <_>
      0. 0. 0. 0. 0. 0. 0. 0. 0. 0. 0. 0. 0. 0. 0. 0. 0. 0. 0. 0. 0. 0.
      0. 0. 0. 0. 0. 0. 0. 0. 0. 0. 0. 0. 0. 0. 0. 0. 0. 0. 0. 0. 0. 0.
      0. 0. 0. 5.69089549e-04 3.17791681e-04 -5.66831441e-05
      -1.32624886e-03 6.02033339e-04 -1.42476859e-03 -1.02571130e-03
      1.77736845e-04 0. 0. 0. 0. 0. 0. 0. 0. -1.06109321e-04
      1.22601283e-04 -2.73979298e-04 2.32414386e-04 -4.27168736e-04
      3.34165015e-05 -2.30708421e-04 1.04138232e-03 2.02420561e-04
      4.01369616e-04 3.43890715e-04 3.92201560e-04 -3.76834301e-04
      -3.61075276e-04 0. 0. 0. 0. 0. -1.06109321e-04 -2.73888552e-04
      -2.27379357e-03 -6.25412329e-04 1.01039710e-03 9.83161270e-04
      -4.84088814e-04 -1.12279877e-03 1.16286043e-03 3.93939088e-04
      -1.10736222e-03 -1.92514609e-03 1.27483887e-04 -1.59375824e-03
      -5.62977046e-04 0. 0. 0. 0. 0. -4.60085372e-04 -6.64549414e-04
      1.04249462e-04 -1.56312331e-03 -1.48498360e-03 1.72804052e-04
      1.48173666e-03 1.41266023e-03 -1.71405263e-03 3.24802706e-04
      -2.56732455e-04 -9.22664127e-04 6.46867789e-04 4.69445949e-04
      -5.83840418e-04 0. 0. 0. 0. 0. -1.46448053e-03 -1.20728149e-03
      6.61819766e-04 -8.66310380e-04 8.78465071e-04 8.09086661e-04
      -1.27388095e-03 -1.54208264e-03 -4.74282919e-04 -5.91100310e-04
      -7.35162539e-05 1.04596547e-03 -9.73666756e-05 -1.25189475e-03
      8.47201678e-04 0. 0. 0. 0. 0. -1.12707342e-03 -3.88373272e-04
      -9.42811545e-04 2.61577843e-05 6.31819305e-04 -7.04825216e-04
      1.59365190e-05 -4.73104068e-04 -1.08872005e-03 -1.89807243e-03
      5.74866226e-06 -9.48139757e-04 -4.24575810e-05 -8.26709438e-04
      -4.91012528e-04 0. 0. 0. 0. 0. 0. 3.46016051e-04 3.46016051e-04
      -3.78314493e-04 3.20768537e-04 -9.59848549e-05 4.60538249e-05
      -5.79652085e-04 -1.76587747e-03 -1.04710925e-03 -1.79363496e-03
      -1.86624157e-03 1.15096525e-04 1.12950883e-03 -3.86269996e-04 0.
      0. 0. 0. 0. 0. 0. 3.72241397e-04 -1.06781151e-03 1.27311226e-03
      -9.15282581e-05 -2.31360737e-03 -1.25379628e-03 -1.54001417e-03
      -2.04473105e-03 -1.80046970e-03 -4.13864473e-04 8.03080446e-04
      4.81336232e-04 -4.55332076e-04 1.25218823e-03 0. 0. 0. 0. 0.
      8.85525660e-04 2.14547661e-04 2.34304881e-03 -8.24944233e-04
      -1.20957578e-04 6.44970278e-04 -1.44931965e-03 5.01294737e-04
      -1.07613963e-03 -1.36958749e-03 1.07213121e-03 1.06089143e-03
      -7.46346137e-04 -4.55332076e-04 1.25218823e-03 0. 0. 0. 0.
      5.13284293e-04 -1.84421180e-04 3.06850625e-03 2.27006138e-04
      1.35774957e-03 2.65524111e-04 1.33254041e-03 3.55823431e-04
      3.01375170e-04 2.89774645e-04 2.10719940e-04 -6.94711052e-04
      4.97011875e-04 1.40962051e-03 -8.21626338e-04 -9.47028748e-04 0.
      0. 0. 0. 3.74991039e-04 -5.15649386e-04 5.41004352e-04
      -4.12353489e-04 8.78839521e-04 3.35511810e-04 2.55916151e-03
      1.93575583e-03 1.89690501e-03 -1.01248210e-03 -9.18573991e-04
      -1.38838799e-03 9.84264771e-04 -6.11179334e-04 2.23605987e-03
      1.17978780e-03 7.60491530e-04 0. 0. 0. -1.83257787e-03
      -2.76677264e-03 1.05225958e-03 -7.05044440e-05 1.69324840e-03
      1.48476078e-03 3.21231237e-05 1.91822101e-03 6.43526844e-04
      -1.03817962e-03 4.46685532e-04 4.95600689e-04 -1.75294743e-04
      6.48865462e-05 1.33506907e-03 1.18547061e-04 1.53120141e-04 0. 0.
      8.70632502e-05 -2.12050579e-03 -1.34705973e-03 -3.44639848e-04
      -2.87034898e-04 2.92053999e-04 2.76946020e-03 3.69932386e-03
      2.76652118e-03 -1.81508530e-03 1.17568520e-03 -2.00881157e-03
      -8.21820810e-04 4.19876393e-04 1.17767812e-03 6.38515514e-04
      5.30419566e-05 3.13174969e-04 0. 0. 0. 9.97664058e-04
      -1.79547831e-04 6.15672790e-04 4.64423996e-04 -1.23651035e-03
      -1.25612831e-04 1.48184504e-03 -1.40957604e-03 -1.40617238e-04
      -1.70654769e-03 1.26030529e-03 7.28036044e-04 1.47805584e-03
      1.50366817e-04 -1.22939865e-03 2.81165645e-04 0. 0. 0. 0.
      -1.38013135e-03 -6.17742364e-04 -3.69343266e-04 1.08471443e-03
      7.20082608e-04 1.94733415e-03 6.91699621e-04 -3.06827016e-04
      -2.49014772e-03 -2.41845567e-03 1.07266218e-03 -2.05222636e-06
      -5.65926835e-04 1.02091282e-04 1.36876898e-03 0. 0. 0. 0. 0.
      -5.79293235e-04 -5.79293235e-04 -1.67726204e-04 -6.69506902e-04
      1.30129411e-04 2.82952969e-04 -1.29762373e-03 -8.42935697e-04
      -7.88439065e-05 4.90021648e-06 6.49056397e-04 -1.96079302e-04
      2.06983415e-04 1.23815029e-03 1.57656948e-04 0. 0. 0. 0. 0. 0. 0.
      0. 0. 0. 0. -1.31492980e-03 -1.31492980e-03 -1.31492980e-03
      -1.31492980e-03 0. -9.28081397e-04 -1.13139518e-04 -1.13139518e-04
      0. 0. 0. 0. 0. 0. 0. 0. 0. 0. 0. 0. 0. 0. 0. 0. 0. 0. 0. 0. 0. 0.
      0. 0.</_>
    <_>
      0. 0. 0. 0. 0. 0. 0. 0. 0. 0. 0. 0. 0. 0. 0. 0. 0. 0. 0. 0. 0. 0.
      0. 0. 0. 0. 0. 0. 0. 7.97062239e-04 0. 1.99945265e-04 0. 0. 0. 0.
      0. 0. 0. 0. 0. 0. 0. 0. 0. 0. 0. 4.33529553e-04 4.49753541e-04
      1.24681578e-03 9.96093615e-04 6.63657614e-04 5.10916812e-04
      7.44258985e-04 2.10450205e-04 0. 0. 0. 0. 0. 0. 0. 0. 0.
      1.42639459e-04 2.13624618e-04 3.07221431e-04 1.20602455e-03
      2.83137109e-04 1.01646816e-03 1.35296106e-03 1.43650617e-03
      5.58531203e-04 1.39781297e-03 -1.33258186e-03 -1.30919670e-03
      -2.13688429e-04 -1.12640002e-04 0. 0. 0. 0. 0. -1.33809473e-04
      4.51526488e-04 8.42101217e-05 -1.00424069e-04 -1.74796485e-04
      6.23591710e-04 6.25930843e-04 5.14568528e-04 7.93576357e-04
      -1.90367045e-05 4.96732129e-04 -7.28053739e-04 -5.73573852e-05
      -9.89153516e-04 -5.01007657e-04 0. 0. 0. 0. 0. -2.27792538e-04
      -2.11370148e-04 6.89043023e-04 2.27161872e-04 5.26571355e-04
      2.78245704e-03 4.48270992e-04 1.66196027e-03 1.25353603e-04
      3.52860479e-05 1.00789242e-03 -5.91971620e-04 4.38034273e-04
      -7.98803812e-05 -5.08051424e-04 -5.08551544e-04 0. 0. 0. 0.
      -3.84071871e-04 3.54355550e-04 2.62272843e-05 4.17478062e-04
      3.88471526e-04 3.52789852e-04 4.51299478e-04 1.45982474e-03
      1.55990288e-04 5.17642533e-04 -1.49702703e-06 8.04470546e-05
      4.86234894e-05 -1.37546565e-04 -5.08551544e-04 -1.20183890e-04 0.
      0. 0. 0. -3.84071871e-04 -4.79068374e-04 -5.47843170e-04
      4.97648551e-04 -3.34800949e-04 3.44297121e-04 -5.68386866e-04
      1.15493592e-03 -6.84637280e-06 -6.09683513e-04 -9.30030306e-04
      -2.94024321e-05 -3.53968033e-04 -5.60281798e-04 3.33341508e-04 0.
      0. 0. 0. -2.19611058e-04 -1.52770677e-04 -2.10728103e-04
      -1.27735676e-03 -1.84289424e-03 -1.30412483e-03 -7.91189959e-04
      -9.91182169e-04 -5.19497553e-04 -4.06813662e-04 -1.59987982e-03
      -3.59788857e-04 8.21167196e-05 8.32974853e-04 6.98150950e-04
      5.03152376e-04 4.41644981e-04 0. 0. 0. 1.43579993e-04
      -4.42541554e-04 -5.38801532e-06 -1.07649446e-03 -1.14823785e-03
      -2.10508169e-03 -2.63221888e-03 9.93834343e-04 -9.38533514e-04
      1.02838990e-03 5.79716288e-04 -2.98938947e-04 -7.23201025e-04
      -8.63438763e-04 9.34764685e-05 1.01161865e-03 1.82479597e-03 0. 0.
      0. 1.43579993e-04 2.19810347e-04 -9.42488492e-04 2.82353634e-04
      3.91903246e-04 -1.46473976e-04 -4.75827284e-04 2.00272945e-04
      5.50529570e-04 -1.09240762e-03 -7.98062130e-04 -4.12184861e-04
      -1.46355625e-04 -1.34223269e-03 4.66529076e-04 9.91070294e-04
      9.84637649e-04 0. 0. 0. 9.75352828e-04 4.36028582e-04
      -3.46213608e-04 4.75642708e-04 2.73932645e-04 -5.15910855e-04
      6.21932151e-04 5.12113387e-04 4.54174471e-04 -8.62110290e-04
      1.58595867e-04 -1.06097234e-03 2.01737115e-04 -3.72342125e-04
      -9.58870573e-04 2.45949812e-03 2.05020071e-03 0. 0. 0.
      6.12161763e-04 9.70386027e-04 1.05086551e-03 -6.30726645e-05
      -2.62544170e-04 1.61183605e-04 8.96395650e-04 -3.45654233e-04
      -1.82599726e-03 2.17504450e-04 -4.69593906e-05 -1.03232288e-03
      -2.55281979e-04 4.55231406e-04 3.14411882e-04 1.57931854e-03
      9.84637649e-04 0. 0. 0. 6.12161763e-04 9.22670937e-04
      3.80953134e-04 1.22117414e-03 -1.34187925e-04 7.82241696e-04
      -9.40235390e-04 1.38991498e-04 -3.46274057e-04 -7.72726198e-04
      4.98442329e-04 -1.57430652e-04 8.87325950e-05 1.51511631e-04
      1.99421286e-03 1.00643572e-03 0. 0. 0. 7.61789343e-05
      7.61789343e-05 -4.31115099e-04 -5.34123465e-05 9.10747098e-04
      1.79397361e-03 1.38474652e-03 8.60246248e-04 7.37479364e-04
      -3.20943975e-04 -3.80242534e-04 -1.16621447e-03 6.98122603e-04
      -8.45093236e-05 5.70510514e-04 7.13136571e-04 -2.16650122e-04 0.
      0. 0. 0. 7.61789343e-05 2.67537282e-04 1.50418619e-03
      1.07228197e-03 7.09248474e-04 -2.39439269e-05 7.34301400e-04
      7.82318180e-04 -6.32159426e-05 -1.12499855e-03 -1.15795425e-04
      -5.10353238e-05 -1.23627004e-04 2.71228579e-04 -2.19103633e-04
      -2.16650122e-04 0. 0. 0. 0. 0. 0. 1.24721540e-04 6.69973379e-04
      -1.29673708e-05 -4.55726433e-04 3.42705287e-04 -1.27124367e-03
      -8.82453460e-04 3.16317863e-04 -2.63224065e-04 -3.12510150e-04
      2.10716767e-04 -5.67447627e-04 2.62520316e-05 -2.06801880e-04 0.
      0. 0. 0. 0. 0. -5.73416997e-04 -5.73416997e-04 1.24721540e-04
      -1.51309971e-04 -1.03305513e-03 1.00092708e-04 4.53348184e-05
      -8.78921070e-04 4.60939744e-04 1.39591133e-03 5.52682264e-04
      -2.34234496e-04 0. 0. 0. 0. 0. 0. 0. 0. 0. 0. 0. 0. 0. 0. 0. 0.
      -5.63342583e-05 1.01976213e-03 0. 0. 0. 0. 0. 0. 0. 0. 0. 0. 0. 0.
      0. 0. 0. 0. 0. 0. 0. 0. 0. 0. 0. 0. 0. 0.</_>
    <_>
      0. 0. 0. 0. 0. 0. 0. 0. 0. 0. 0. 0. 0. 0. 0. 0. 0. 0. 0. 0. 0. 0.
      0. 0. 0. 0. 0. 0. 0. 0. 0. 0. 0. 0. 0. 0. 0. 0. 0. 0. 0. 0. 0. 0.
      0. 0. 5.92185359e-04 7.32730376e-04 1.11880817e-03 -3.52699426e-04
      3.47727153e-04 3.95082403e-04 -5.29428886e-04 -6.24316104e-04
      1.54504174e-04 1.54504174e-04 0. 0. 0. 0. 0. 0. 0. 0.
      3.71194299e-04 5.65823459e-04 6.82813872e-04 1.49847043e-03
      -1.97668196e-05 -5.92553231e-04 1.37892086e-03 3.13938857e-04
      1.34230789e-03 7.99199770e-05 2.06702622e-04 -1.33194774e-03
      -7.53313769e-04 -3.48935602e-04 0. 0. 0. 0. 0. 3.71194299e-04
      6.25017681e-04 5.63959125e-04 2.34617939e-04 2.81982851e-04
      -1.60402502e-04 -1.75775749e-05 3.20996041e-04 4.89203492e-04
      -2.72825680e-04 7.99614005e-04 -5.94122859e-04 -6.72379916e-04
      -1.07484462e-03 -1.60111918e-03 -4.19435091e-04 0. 0. 0. 0.
      1.13178183e-04 -5.85859234e-04 6.70584792e-04 -6.53202471e-04
      1.31331966e-03 9.06988746e-04 -2.48499418e-04 -7.98977737e-04
      -4.19440039e-04 9.49962705e-04 8.18812463e-04 -1.38135545e-03
      -6.27991220e-04 -1.30588003e-03 -9.32033523e-04 -4.94976819e-04 0.
      0. 0. 0. 3.96484480e-04 -1.41909855e-04 8.00959184e-04
      4.89451108e-04 1.55907194e-03 -6.27775968e-04 -6.12915261e-04
      -1.86174875e-04 2.57885287e-04 9.96506074e-04 8.72484117e-04
      -1.29665146e-04 6.03303197e-04 -1.63128215e-03 -2.76382640e-03
      -6.36255892e-04 0. 0. 0. 0. 1.85609606e-04 -8.88321490e-04
      2.87200412e-04 5.92703182e-05 -2.01274990e-03 -3.98746284e-04
      5.68740288e-05 -7.81867304e-04 1.25201710e-03 3.04364861e-04
      2.98242056e-04 1.28973718e-03 2.76090606e-04 -1.20517449e-03
      -1.23030297e-03 -7.64898316e-04 0. 0. 0. 0. 1.85609606e-04
      -1.12597062e-03 -8.30092467e-04 -7.05909682e-04 -1.21647050e-03
      -8.99963838e-04 -7.36143033e-04 7.16987997e-05 -1.41276934e-04
      2.92213430e-04 -5.84643334e-04 1.79728889e-03 1.43181148e-03
      -2.18274625e-04 3.08772287e-04 0. 0. 0. 0. 0. -1.57693969e-04
      -2.59737571e-04 -6.27641159e-04 -7.97208631e-04 -4.48404990e-06
      -2.13396945e-03 -9.81161371e-04 -6.01842999e-04 -3.20265215e-04
      1.52965004e-04 1.06707355e-03 4.23523918e-04 -5.19976777e-04
      3.56046570e-04 9.23381303e-04 9.23381303e-04 0. 0. 0. 0.
      4.53521679e-05 4.12146146e-05 1.94928912e-03 -1.01442600e-03
      -1.91828108e-03 -1.29626933e-04 3.76461176e-05 3.80081707e-04
      1.02583505e-03 -1.24017650e-03 -3.29551141e-04 -2.88845040e-04
      -1.35449576e-03 -2.32622944e-04 1.78661707e-04 7.00434786e-04 0.
      0. 0. 6.25011089e-05 -4.64275829e-04 1.24962884e-03 2.16439972e-03
      1.39600236e-03 6.41954612e-05 7.29431806e-04 8.09020130e-04
      2.08530182e-05 2.08700396e-04 8.03514777e-05 -3.96263407e-04
      1.10775080e-04 -1.53042944e-04 3.70588299e-04 1.04032864e-03
      1.21689332e-03 0. 0. 0. 6.25011089e-05 6.05902460e-04
      2.36544874e-04 3.33120086e-04 6.41340681e-04 1.41234370e-03
      1.09535304e-03 1.81241031e-03 -2.15434004e-04 7.17365765e-04
      -7.07901083e-04 5.28250763e-04 2.34003877e-04 8.52502926e-05
      1.09982328e-03 1.22376974e-03 9.46500397e-04 0. 0. 0.
      -4.87546058e-04 6.99780881e-04 1.92932115e-04 -1.34413701e-03
      4.62775992e-04 7.30644912e-04 6.40696671e-04 6.85532810e-04
      7.21661840e-04 2.54290644e-04 9.37319826e-04 -7.45923491e-04
      -6.53709925e-04 -1.05488801e-03 1.12567807e-03 7.05695536e-04
      2.59089487e-04 0. 0. -5.50047145e-04 -5.50047145e-04
      1.24008293e-04 -6.32730487e-04 -1.91604672e-03 6.55311102e-04
      4.69768944e-04 1.82165089e-03 -5.12748724e-04 9.18078877e-04
      8.40901746e-04 -7.42040575e-04 7.50684645e-04 3.42063780e-04
      6.72221417e-04 2.86592229e-04 -4.61359712e-04 4.72963351e-04 0. 0.
      0. 0. 4.19995777e-04 1.24564266e-03 -5.20343077e-04 6.18893013e-04
      -8.44497117e-04 5.52869868e-04 1.45280737e-05 -4.33460984e-04
      -4.20233817e-04 -2.75965176e-05 -3.39843886e-04 -2.98533141e-05
      -1.91958115e-05 -6.42351166e-04 -8.84343754e-04 0. 0. 0. 0. 0.
      -3.15899320e-04 1.48828491e-03 6.18238875e-04 2.29762067e-04
      -9.16608318e-04 6.75094081e-04 -7.40171294e-04 -3.35723045e-04
      -1.31492352e-03 1.76532869e-03 -1.30687025e-03 -1.10520120e-03
      -8.76361795e-04 -2.73946527e-04 0. 0. 0. 0. 0. 0. -6.33340329e-04
      1.07204491e-04 5.36335981e-04 -6.58437377e-04 -4.85028169e-04
      -8.84587876e-04 -4.05592145e-04 -2.03705835e-03 -1.10674207e-03
      3.96152493e-04 1.43864809e-03 1.22355402e-03 8.78431543e-04 0. 0.
      0. 0. 0. 0. 0. 0. 0. 0. 0. 0. 0. 0. 0. -6.64291612e-04 0.
      7.76038971e-04 0. 0. 0. 0. 0. 0. 0. 0. 0. 0. 0. 0. 0. 0. 0. 0. 0.
      0. 0. 0. 0. 0. 0. 0. 0. 0.</_>
    <_>
      0. 0. 0. 0. 0. 0. 0. 0. 0. 0. 0. 0. 0. 0. 0. 0. 0. 0. 0. 0. 0. 0.
      0. 0. 0. 0. -3.47952708e-04 -3.47952708e-04 0. 1.45620340e-03
      2.96014361e-04 -1.53057874e-04 -4.32722532e-04 -7.41577300e-04 0.
      0. 0. 0. 0. 0. 0. 0. 0. 0. 0. 0. -6.23912259e-04 -5.60481625e-04
      4.77550522e-04 9.57152050e-04 -9.66617896e-04 -9.91609922e-05
      -5.02740557e-04 -7.65380624e-04 -1.28832529e-03 -1.38774607e-03
      -9.41828243e-04 0. 0. 0. 0. 0. 0. 0. 6.68470631e-04 6.51867304e-04
      8.06318247e-04 5.42486261e-04 -1.26573039e-04 1.23245036e-03
      3.93559952e-04 9.08293296e-04 -2.49397737e-04 -2.38434572e-04
      -1.32430298e-03 -7.16802781e-04 -1.21121499e-04 0. 0. 0. 0. 0. 0.
      7.01161509e-04 8.43739486e-04 5.84673602e-04 2.34056861e-04
      3.13086435e-04 8.82816530e-05 7.62499752e-04 -2.59297696e-04
      4.51063272e-04 -6.60580874e-04 7.22321056e-05 9.52221162e-04
      2.42224996e-04 -6.11139461e-04 -8.21442169e-04 -8.21442169e-04
      -8.21442169e-04 0. 0. 7.64532815e-05 -1.81379757e-04
      -3.13990575e-04 1.28258136e-03 -4.23717574e-05 1.90878243e-04
      1.01533788e-03 8.99518782e-04 -4.65577410e-04 1.20961247e-03
      6.33563555e-04 1.37383165e-03 2.06952309e-03 1.28901069e-04
      -1.15472812e-03 -8.21442169e-04 -8.21442169e-04 0. 0. 0.
      7.64532815e-05 -2.14070649e-04 -2.47211690e-04 9.43313178e-04
      8.66139424e-04 5.37132670e-04 -5.39557426e-04 1.73321925e-04
      -1.66160491e-04 1.86754391e-03 1.50164589e-03 1.50130747e-03
      1.24642719e-03 1.25550956e-04 -4.34103364e-04 0. 0. 0. 0. 0. 0.
      -2.52974976e-04 -1.48047763e-03 -1.00111916e-04 -5.47321572e-04
      -4.05243103e-04 7.84395670e-05 2.70362856e-04 7.74092972e-04
      2.11293856e-03 -2.04053329e-04 1.19009812e-03 1.46051636e-04
      1.38242744e-04 -5.86475013e-04 -3.46292654e-04 0. 0. 0. 0. 0.
      3.31963791e-04 -1.35692197e-03 -1.81025302e-03 -2.52290443e-03
      -1.62789284e-03 -3.09030584e-04 -2.13251496e-03 -8.91991251e-04
      1.15111319e-03 4.46047023e-04 1.37202718e-04 1.81650001e-04
      -8.42964975e-04 -1.24789879e-03 6.20016304e-04 1.74190092e-04 0.
      0. 0. 4.37157432e-04 -5.02532930e-04 -1.28562073e-03
      -7.16244511e-04 -9.78314318e-04 -7.46361329e-04 -1.40492769e-03
      -6.59772602e-04 -1.49895775e-03 5.04582946e-04 -6.10950927e-04
      -7.53760614e-05 1.63298115e-04 -4.86406265e-04 4.12283640e-04
      -1.39939063e-03 5.99504041e-04 0. 0. 0. 4.37157432e-04
      -4.47130005e-04 -7.59151881e-04 -1.11436064e-03 -6.88901404e-04
      -4.10030771e-04 -1.33230351e-04 -1.54674635e-05 -1.09594932e-03
      6.09416806e-04 2.94213620e-04 2.24379037e-04 -1.41546177e-03
      -1.61690172e-03 -5.54418366e-04 -6.80183875e-04 4.00649122e-04 0.
      0. 0. 4.37157432e-04 -1.85464305e-04 -1.28666463e-03
      8.62454646e-04 1.36148930e-03 8.07409888e-05 2.31406651e-04
      5.29844780e-04 -1.31862052e-03 -3.71156319e-04 1.16280644e-04
      -1.07905571e-03 6.89592795e-04 -1.90438455e-04 -4.87214624e-04
      7.84984615e-04 1.34820899e-03 0. 0. 0. 0. 1.93458982e-03
      1.58541708e-03 -8.42599839e-05 -1.26980944e-03 -5.80531836e-04
      -6.51101000e-04 -1.57462215e-04 1.16328569e-03 2.48568889e-04
      -4.15756731e-05 2.71179189e-04 -7.33980327e-04 5.76882507e-04
      1.39559084e-03 7.36045535e-04 8.01344053e-04 0. 0. 0. 0.
      9.23153653e-04 1.89644855e-03 1.17121008e-03 -5.40229958e-04
      -4.27220861e-04 -1.50871277e-03 2.52565398e-04 -5.73116180e-04
      -4.87358338e-04 -3.24416091e-04 1.23450556e-03 -1.86743186e-04
      2.54326325e-04 7.54004286e-04 7.05248909e-04 0. 0. 0. 0.
      1.71995471e-05 6.10396615e-04 1.50402263e-03 9.06304980e-04
      -1.39841257e-04 -4.42395132e-04 -4.42224191e-05 -9.51169292e-04
      -1.71904336e-03 -6.24153647e-04 -1.20709615e-03 -9.10216535e-04
      1.36466133e-05 1.08994858e-03 -3.23216984e-04 1.28247868e-03
      3.23484099e-04 0. 0. 0. 1.71995471e-05 1.59225427e-04
      1.16128533e-03 6.74183946e-04 3.60760750e-05 -4.39252704e-04
      -4.12869384e-04 -1.04427585e-04 -6.66973239e-04 -1.28974905e-03
      -3.50469752e-04 -2.47205811e-04 9.59235767e-04 1.94210210e-03
      1.75268840e-04 0. 0. 0. 0. 0. 0. 1.71995471e-05 1.12468828e-04
      6.23886357e-04 -3.61379971e-05 1.77210502e-04 8.68602219e-05
      8.64906688e-05 -1.73609587e-03 -5.06235636e-04 2.20826187e-04
      1.47580067e-04 5.26076292e-05 1.75268840e-04 1.75268840e-04 0. 0.
      0. 0. 0. 0. 0. 0. 2.55107843e-05 9.14142583e-04 9.14142583e-04 0.
      7.64532815e-05 7.64532815e-05 0. 7.01056910e-04 8.86985566e-04
      7.01056910e-04 0. 0. 0. 0. 0. 0. 0. 0. 0. 0. 0. 0. 0. 0. 0. 0. 0.
      0. 7.01056910e-04 0. 0. 0. 0. 0. 0. 0. 0. 0. 0. 0. 0. 0. 0. 0. 0.
      0. 0. 0. 0. 0. 0. 0. 0. 0. 0.</_>
    <_>
      0. 0. 0. 0. 0. 0. 0. 0. 0. 0. 0. 0. 0. 0. 0. 0. 0. 0. 0. 0. 0. 0.
      0. 0. 0. 0. 0. 0. 0. 0. 0. 1.59040748e-04 0. 0. 0. 0. 0. 0. 0. 0.
      0. 0. 0. 0. 0. 0. 0. 3.02776782e-04 2.13613603e-04 7.32965593e-04
      1.21169607e-03 1.59040748e-04 1.59040748e-04 0. 0. 0. 0. 0. 0. 0.
      0. 0. 0. 0. 1.10240020e-04 -4.97885689e-04 -1.95108922e-04
      5.50718338e-04 -7.02831661e-04 8.35291692e-04 1.02383015e-03
      2.41196575e-03 1.38872943e-03 5.84609224e-04 3.85114923e-04 0. 0.
      0. 0. 0. 0. 0. 0. 2.86548457e-04 6.88156637e-04 -1.55212998e-03
      -7.01913677e-06 -8.30526624e-05 3.16459744e-04 -4.85067518e-04
      4.89172526e-04 -2.19723050e-04 -3.40638711e-04 1.41457976e-05
      1.13392016e-03 4.18704032e-04 0. 0. 0. 0. 0. 0. -3.57914192e-04
      7.21122778e-04 3.33565869e-04 5.51757577e-04 -1.00927828e-04
      -1.07679632e-03 1.79601857e-03 -5.38739085e-04 4.52173059e-04
      -1.35204871e-03 1.13440526e-03 -3.19148181e-04 -3.74912750e-04
      4.94325068e-04 3.59119789e-04 0. 0. 0. 0. 0. -5.31450089e-04
      -4.22109035e-04 -6.06495771e-04 -1.01333670e-03 2.80012726e-04
      1.98738868e-04 -1.42458174e-03 -1.54276247e-04 -4.22098447e-06
      -1.43353711e-03 -9.54585325e-04 2.52789148e-04 -1.09460484e-03
      -7.42135744e-04 3.57670215e-05 0. 0. 0. 0. -3.22818196e-05
      -6.94020418e-04 -4.65160061e-04 4.44031612e-04 -4.86318866e-04
      -2.53869453e-04 -7.28799729e-04 -7.09561573e-04 -5.96244703e-04
      6.46264583e-04 -1.20221137e-03 -1.46496762e-03 -1.30136509e-03
      -2.02250973e-04 -9.31560586e-04 -2.20753587e-04 1.15918825e-04 0.
      0. 0. 0. -5.33267623e-04 6.09626062e-04 1.29541848e-03
      -9.57644195e-04 7.64712458e-04 3.50893126e-04 -5.03667921e-04
      -3.33857111e-04 4.35660040e-05 -7.38565519e-04 -5.45895076e-04
      -8.17785447e-04 -2.91807286e-04 -1.51319357e-04 -1.85608587e-04
      -3.83826118e-04 0. 0. 0. 0. -5.00985829e-04 -1.05286005e-03
      2.03117525e-04 -1.43225887e-03 -2.80331122e-04 -1.25274295e-03
      4.63892593e-06 -5.43070957e-04 -1.15993642e-03 -4.88585611e-05
      3.04309273e-04 -2.71346507e-05 3.79849604e-04 -1.31505512e-04
      -3.78060431e-05 7.33644934e-04 7.33644934e-04 0. 0. 0. 0.
      -8.41175206e-04 -1.20951538e-03 1.35907275e-03 2.74417078e-04
      -9.41473583e-04 2.31587808e-04 4.95426415e-04 8.57505438e-05
      -1.93456677e-03 1.53238740e-04 1.23301856e-04 1.36220769e-03
      2.55376566e-04 7.39266572e-04 9.89686698e-04 2.51278601e-04 0. 0.
      0. 0. -5.04586147e-04 -1.26555215e-05 3.30937648e-04
      3.54324351e-04 -3.37122561e-04 -4.39136667e-04 1.24758668e-03
      2.25432799e-04 9.40839891e-05 -8.20121961e-04 -1.78226957e-03
      8.95795529e-04 -3.90766712e-04 -6.63948231e-05 4.31545996e-05
      2.51278601e-04 0. 0. 0. 0. -1.64396726e-04 1.12261379e-03
      1.00268086e-03 -4.40900010e-04 1.02012069e-03 1.52398157e-03
      7.55249494e-05 -8.79031664e-04 -1.20057515e-03 1.71511120e-03
      -6.00117957e-04 1.03494711e-03 4.29115840e-04 2.92922789e-03
      1.63391652e-03 2.51278601e-04 0. 0. 0. 0. 6.12033240e-04
      1.29124022e-03 1.27517025e-03 1.42444624e-03 -5.80539519e-04
      4.52686072e-04 1.07972953e-03 2.82289024e-04 3.84611158e-05
      4.12515103e-04 1.12815113e-04 -3.08888382e-04 2.85349437e-04
      1.39008206e-03 5.97593549e-04 6.29903807e-04 0. 0. 0. 0.
      6.19774568e-04 8.66470044e-04 -2.87774194e-04 7.14166323e-04
      1.01405929e-03 1.70685921e-03 8.07249977e-04 -1.79681505e-04
      9.16092133e-04 -3.30488721e-04 1.01097208e-03 -1.21095835e-03
      1.08141685e-04 1.63305108e-03 7.69561389e-04 0. 0. 0. 0. 0.
      3.94264789e-04 1.15101261e-03 8.02789931e-04 -2.85215210e-04
      3.17224622e-04 2.41455564e-05 1.24262786e-03 3.24958412e-04
      -7.02135076e-05 3.59493162e-04 2.18861643e-03 -1.74243934e-04
      8.81352404e-04 1.01032376e-03 0. 0. 0. 0. 0. 0. -2.72460195e-04
      4.81251918e-04 1.09945610e-03 1.87625410e-04 6.93174603e-04
      1.09773665e-03 3.29454371e-04 8.05389311e-04 -1.11612701e-03
      1.97746605e-03 1.22065959e-03 5.07245597e-04 9.85394654e-05
      1.18702010e-03 0. 0. 0. 0. 0. 0. -2.72460195e-04 3.21882362e-05
      -1.00536540e-03 -1.16875407e-03 -1.15173869e-03 -2.41711643e-03
      -8.83213768e-04 -1.02233526e-03 1.62935816e-04 5.83257992e-04
      7.67915393e-04 9.94371367e-04 2.11611827e-04 0. 0. 0. 0. 0. 0. 0.
      -4.49063693e-04 -5.17278386e-04 -8.34311126e-04 -1.44557317e-03
      -1.17995404e-03 -8.88274109e-04 -8.94478930e-04 0. -1.21730438e-03
      -9.87781328e-04 -5.54522616e-04 -6.69586370e-05 -4.30453889e-04
      -2.11684805e-04 0. 0. 0. 0. 0. 0. 0. 0. 0. 0. 0. 0. 0. 0. 0.
      -6.87872307e-05 0. 0. -4.30453889e-04 0. 0. 0. 0.</_>
    <_>
      0. 0. 0. 0. 0. 0. 0. 0. 0. 0. 0. 0. 0. 0. 0. 0. 0. 0. 0. 0. 0. 0.
      0. 0. 0. 0. 0. 0. 0. 0. 0. 0. 0. 0. 0. 0. 0. 0. 0. 0. 0. 0. 0. 0.
      0. 0. 0. -5.07280289e-04 -5.07280289e-04 -1.54169439e-03
      -2.03781354e-04 1.84039841e-03 1.03872095e-03 1.45533500e-04
      3.09135386e-04 1.97910907e-04 0. 0. 0. 0. 0. 0. 0. 0.
      2.99696316e-04 9.29749571e-04 5.98084334e-05 1.35057245e-03
      1.55206444e-03 1.85314729e-03 -2.56282627e-04 9.72783659e-04
      -4.68903338e-04 -1.49775573e-04 1.03502913e-04 -4.05299768e-04
      -1.03191135e-03 0. 0. 0. 0. 0. 0. 1.49177373e-04 7.19616015e-04
      1.03576772e-03 -1.09133922e-04 1.45531216e-04 -3.13460390e-04
      3.97944910e-04 -8.29450801e-05 1.82696080e-04 -1.11005583e-03
      2.02258350e-04 -4.88747828e-05 7.80523187e-05 -6.99912256e-04
      -1.03191135e-03 0. 0. 0. 0. 0. 3.95905663e-04 6.35150704e-04
      1.92921946e-03 -2.39945087e-03 1.14032917e-03 7.91997067e-04
      -5.58445347e-04 -8.83431814e-04 5.44552749e-04 8.42201465e-04
      -2.52888916e-04 3.15447774e-04 -7.75573310e-04 3.14665609e-04
      -6.34073629e-04 0. 0. 0. 0. 0. 1.61130435e-03 -1.51783519e-03
      -1.31747243e-03 9.80154728e-04 1.10913208e-03 -1.32270250e-03
      -4.18962940e-04 -1.05936325e-03 1.07201457e-03 -3.15125566e-04
      6.50917296e-04 -1.11045432e-03 9.87528125e-04 -1.89328240e-03
      -3.58766853e-03 0. 0. 0. 0. 0. 4.33173729e-04 -4.10904991e-04
      4.65747464e-04 1.30229525e-03 -2.30719405e-03 -6.44970278e-04
      -1.20894087e-03 3.03880719e-04 9.45659413e-04 -2.48037773e-04
      -4.82524105e-04 -1.86454508e-05 2.73542682e-04 -3.53433687e-04
      3.60510661e-04 -1.52819746e-04 0. 0. 0. 0. 4.97976260e-04
      8.99380655e-04 -2.29551783e-03 -1.72699371e-03 -6.42035666e-05
      -1.97841320e-03 -1.20611326e-03 -1.82157941e-03 -1.54779607e-03
